1056 100
说 -0.2323834 0.56001586 0.14081298 0.028652629 0.085610956 -0.86770684 0.38152388 1.001861 -0.29154524 -0.45987415 -0.19379427 -0.7271396 0.15383534 0.15441573 0.21930096 -0.27732798 0.088820994 -0.70575583 -0.25322974 -0.85452306 0.35638395 0.122349106 0.25933158 -0.34385282 -0.36022297 0.3081471 -0.32154652 -0.47834083 -0.19861425 -0.11469285 0.5515546 0.046930302 0.18656848 -0.0989309 -0.15171982 0.38045263 -0.042661384 -0.4489837 -0.36936098 -0.91649276 -0.13600558 -0.2144635 -0.2026181 -0.29633996 0.37447804 -0.15243953 -0.24348405 0.039634038 0.038760442 0.423775 0.34528282 -0.2383217 -0.11195415 -0.114475325 -0.3277392 0.44035593 0.47183484 0.024932275 -0.5726406 0.32337254 0.10106435 0.22831658 -0.20475516 -0.20045207 -0.5336885 0.44302756 0.22597004 0.35447937 -0.70595104 0.70194596 -0.6565447 0.090654105 0.61665595 -0.17129213 0.5369562 -0.10029357 -0.038030665 -0.059598662 -0.54117584 0.19984107 -0.25574547 0.05753738 -0.52924067 0.91727525 -0.044267446 0.24342 0.106291406 0.47879797 0.743899 0.029253101 0.47917935 0.07642639 0.08219308 0.10468408 0.97532266 0.580547 0.11105532 -0.68529963 0.30343777 0.19015534
家珍 -0.22438036 0.52302265 0.13091071 0.024320288 0.097695395 -0.8046273 0.34832993 0.92941564 -0.2698153 -0.42976916 -0.18761489 -0.6811472 0.14257234 0.1448727 0.21164523 -0.24791023 0.08695238 -0.6485793 -0.23067927 -0.78445184 0.3260623 0.10365789 0.24280924 -0.32819825 -0.33341017 0.29232022 -0.30171573 -0.4454336 -0.17803776 -0.093950935 0.52936995 0.04066499 0.16358271 -0.091554485 -0.13556877 0.35905415 -0.04075093 -0.40698123 -0.3339306 -0.83724135 -0.10977843 -0.2123259 -0.18879637 -0.27116987 0.343331 -0.13370502 -0.21172722 0.023320379 0.033627346 0.3870261 0.3357317 -0.23636472 -0.100421555 -0.102579005 -0.31397524 0.4208379 0.44225913 0.03741817 -0.5279389 0.3001841 0.088398375 0.21560195 -0.19040467 -0.18446846 -0.48912764 0.41598684 0.21917272 0.3171923 -0.64449733 0.6569686 -0.61951447 0.067300856 0.58038044 -0.14334585 0.49286747 -0.100383446 -0.048964884 -0.056706585 -0.4944581 0.19110556 -0.2459893 0.053608492 -0.49334556 0.8371771 -0.034943458 0.22138922 0.092804365 0.43974775 0.6951183 0.013842394 0.4456163 0.068417564 0.07535099 0.08973329 0.89372 0.537306 0.11756518 -0.6319953 0.27001417 0.1732429
凤霞 -0.19345802 0.46983683 0.10635948 0.015917517 0.08847328 -0.71066266 0.3091677 0.83134735 -0.24869147 -0.37484148 -0.1736405 -0.61020005 0.14353135 0.12488213 0.19728221 -0.23736268 0.07702091 -0.581828 -0.21403491 -0.7121009 0.2841615 0.09190531 0.2063286 -0.2968545 -0.29976186 0.2554995 -0.25963503 -0.40004066 -0.16699728 -0.08699331 0.4758982 0.03245178 0.1404599 -0.07934921 -0.1344205 0.31962174 -0.043246675 -0.36848658 -0.30826113 -0.76439536 -0.11306082 -0.18258724 -0.1621663 -0.2373023 0.31738648 -0.12345458 -0.19542219 0.020578558 0.024038851 0.34680215 0.2973231 -0.20583305 -0.09823555 -0.10352067 -0.29072568 0.3663527 0.38887176 0.022680685 -0.48269427 0.25916013 0.091675505 0.18809736 -0.15896799 -0.16053328 -0.45242736 0.37923017 0.1970502 0.29688308 -0.5954187 0.5910077 -0.5502377 0.074388 0.5229116 -0.13279635 0.44164735 -0.07730306 -0.029130956 -0.044734154 -0.453222 0.17418043 -0.21102272 0.035603836 -0.45723277 0.7616505 -0.02912429 0.19689995 0.07891984 0.3968838 0.63609016 0.016649406 0.39623234 0.06984926 0.075746275 0.08416824 0.8186957 0.48798555 0.1064477 -0.5685394 0.26195866 0.1442481
走 -0.21932797 0.52039456 0.12322255 0.01710792 0.093021505 -0.7913922 0.3459913 0.91410655 -0.25588354 -0.4235479 -0.17586184 -0.65668195 0.15039659 0.12813225 0.21542238 -0.2527437 0.085883 -0.6519038 -0.23183244 -0.7662634 0.3210049 0.10400067 0.24037518 -0.3043213 -0.34622276 0.2868297 -0.28526336 -0.4396253 -0.17262572 -0.100424185 0.5130863 0.04055222 0.15387125 -0.0853125 -0.13167803 0.35983428 -0.038624004 -0.41212687 -0.34865823 -0.8251477 -0.11439735 -0.19590896 -0.17004703 -0.27094746 0.34916183 -0.13616784 -0.2128207 0.021815432 0.027510574 0.3771694 0.32612976 -0.22198483 -0.11042505 -0.115052275 -0.31443304 0.40619114 0.42804512 0.03721256 -0.5143065 0.28261465 0.095456325 0.21509874 -0.17593233 -0.17822523 -0.48070666 0.39787033 0.20532131 0.32589373 -0.64381444 0.62896675 -0.60079587 0.070393294 0.5645591 -0.1363412 0.48186472 -0.09840078 -0.046328045 -0.046880223 -0.49735913 0.19259904 -0.23733197 0.05562442 -0.4860818 0.83224565 -0.0366049 0.21723329 0.100599304 0.44650382 0.67962915 0.0066462196 0.42808878 0.06893891 0.06981044 0.09455497 0.8928557 0.5244674 0.11609789 -0.62806815 0.27252162 0.15932482
没 -0.18361165 0.42370662 0.09553751 0.013549855 0.076732986 -0.6450685 0.28437182 0.75474757 -0.22114007 -0.33806616 -0.15944688 -0.5447546 0.11090865 0.11496535 0.16499326 -0.21178088 0.06130035 -0.529032 -0.17879747 -0.6452461 0.2642765 0.08040124 0.19834502 -0.25061324 -0.28062326 0.23603065 -0.24191509 -0.36238116 -0.15183556 -0.08231127 0.43085134 0.039613467 0.13551584 -0.078650005 -0.10485962 0.28446597 -0.041550275 -0.3339211 -0.28060833 -0.6886868 -0.093672864 -0.17405319 -0.15714741 -0.21148042 0.2892542 -0.12319187 -0.17424062 0.02101612 0.030961964 0.3070994 0.27222547 -0.1796591 -0.0711405 -0.09208381 -0.25674143 0.32907078 0.3441654 0.01447904 -0.43104467 0.23232248 0.083903566 0.16776082 -0.14877845 -0.14615329 -0.40574795 0.33230338 0.18214317 0.27280593 -0.5361877 0.54007405 -0.5076425 0.06838014 0.46526656 -0.11924671 0.40538788 -0.06940659 -0.036255352 -0.036125354 -0.39935803 0.14713909 -0.20190431 0.03249675 -0.40194148 0.6855613 -0.036576442 0.17528218 0.08420926 0.36912632 0.556625 0.010634315 0.36502206 0.05291369 0.06445081 0.075541236 0.7336968 0.4276682 0.09809653 -0.50938135 0.22908695 0.14132334
有庆 -0.1950599 0.44964212 0.10658274 0.005618377 0.0675575 -0.6890795 0.30359212 0.7986321 -0.23522113 -0.37160054 -0.166802 -0.58356875 0.117925294 0.10938573 0.17736527 -0.22814871 0.06312049 -0.57040554 -0.19752711 -0.6772802 0.26958543 0.09230604 0.2098814 -0.26706323 -0.300994 0.24337067 -0.25364974 -0.39706168 -0.1500886 -0.08197732 0.4553492 0.029759986 0.13604307 -0.082178704 -0.121336766 0.31552148 -0.036158845 -0.35069448 -0.2899362 -0.73393977 -0.09092214 -0.18333802 -0.16214882 -0.23638406 0.2981309 -0.1257585 -0.18675497 0.029814053 0.027122738 0.329294 0.285124 -0.20354244 -0.07824153 -0.082636595 -0.278956 0.35757083 0.38397262 0.016300185 -0.46114725 0.24348076 0.09092509 0.18280315 -0.15078406 -0.16298074 -0.42044485 0.35581923 0.1823937 0.2798563 -0.5686619 0.54993 -0.5270921 0.07166666 0.50346667 -0.122845255 0.4242775 -0.0721642 -0.046337727 -0.044256736 -0.430662 0.16820665 -0.19600758 0.035559714 -0.4215882 0.7175754 -0.030152926 0.18488562 0.075224005 0.39778307 0.59486395 0.019737497 0.39126253 0.07019152 0.053470235 0.07986453 0.78190196 0.465686 0.09604168 -0.5512589 0.24418545 0.13866799
里 -0.20869851 0.5186768 0.1254979 0.021043414 0.08830228 -0.8050394 0.35723603 0.9297124 -0.2722748 -0.4282599 -0.18360274 -0.67679816 0.14950821 0.14878269 0.20642292 -0.2581092 0.08761271 -0.6564714 -0.2266982 -0.8019844 0.3291677 0.107889794 0.24464211 -0.32240853 -0.3434845 0.29267156 -0.30138716 -0.4611045 -0.17857262 -0.10565058 0.5318077 0.054723408 0.16436331 -0.08197983 -0.14677422 0.36166143 -0.056517303 -0.42660862 -0.35427722 -0.8641747 -0.11264621 -0.21246475 -0.17303753 -0.2811717 0.3529818 -0.13314888 -0.22794262 0.01524178 0.027202038 0.3860959 0.3318306 -0.23644441 -0.109939344 -0.105533086 -0.32344267 0.40804943 0.43466496 0.019626295 -0.5405415 0.28560662 0.096991695 0.21229333 -0.18205212 -0.17979126 -0.5011282 0.41950762 0.20604664 0.3219366 -0.66412956 0.6520693 -0.6228733 0.08342107 0.57758737 -0.14641778 0.50568414 -0.10297548 -0.03721131 -0.049284596 -0.50983155 0.2021793 -0.23169501 0.04403839 -0.5097722 0.85451376 -0.03749631 0.2198368 0.101738065 0.44804406 0.69305813 0.019835629 0.44553655 0.07225841 0.068681575 0.09991952 0.9064365 0.54006886 0.12240131 -0.641094 0.28165767 0.17631349
时 -0.21718928 0.5405844 0.14158924 0.02774221 0.08906671 -0.8388074 0.3683202 0.9636332 -0.2852995 -0.45215613 -0.1984251 -0.70614934 0.15993041 0.14235924 0.22036006 -0.26545742 0.086069494 -0.69031143 -0.24474865 -0.83272326 0.33920914 0.121000476 0.24483614 -0.34510878 -0.3670631 0.30736065 -0.31524554 -0.46661696 -0.19252606 -0.09836489 0.5390452 0.05152806 0.16993614 -0.095589586 -0.14954153 0.37215102 -0.05678083 -0.4351891 -0.36917213 -0.88711804 -0.11525984 -0.21627325 -0.18873188 -0.2814339 0.37372214 -0.15419906 -0.23629065 0.024076894 0.04291524 0.40568247 0.3359234 -0.23825786 -0.095506415 -0.11933318 -0.33290055 0.44305032 0.44598204 0.034827765 -0.5530985 0.31333938 0.10997525 0.22216368 -0.20079046 -0.17965336 -0.51532704 0.43628347 0.21095587 0.34863883 -0.6859293 0.67480654 -0.64166325 0.080154255 0.6082392 -0.16002923 0.5149217 -0.09709962 -0.03573983 -0.062466 -0.5227486 0.19513357 -0.25452653 0.052104514 -0.5315504 0.8900638 -0.035839137 0.23287672 0.10119728 0.48280996 0.73807853 0.018680418 0.4685093 0.071311064 0.06864868 0.10990349 0.94061244 0.5608646 0.11693115 -0.66653657 0.29919747 0.17261876
爹 -0.17001007 0.397334 0.09858778 0.02350819 0.07385634 -0.59405094 0.27002347 0.68486077 -0.20677207 -0.31226498 -0.1372351 -0.50910705 0.12114476 0.099178836 0.1663818 -0.19015062 0.050811853 -0.49278733 -0.17753777 -0.5891494 0.24369842 0.091236286 0.18429534 -0.24649864 -0.25121358 0.21793844 -0.22431774 -0.34757924 -0.13072732 -0.08439955 0.39522475 0.02833221 0.12778892 -0.0534486 -0.10337501 0.2697947 -0.038251795 -0.30089945 -0.25299108 -0.642674 -0.09028345 -0.14954217 -0.13368198 -0.20289396 0.2573206 -0.1076948 -0.16364451 0.023796335 0.018645631 0.28424993 0.2459634 -0.16797523 -0.075086795 -0.08447323 -0.22812279 0.307935 0.3268979 0.022099642 -0.38884464 0.2109635 0.06456797 0.15524304 -0.13034989 -0.13538916 -0.37833863 0.3056543 0.15121053 0.2477782 -0.49719003 0.48685533 -0.46986157 0.05770928 0.43559143 -0.1054614 0.36194843 -0.076836914 -0.038749397 -0.049742248 -0.38317752 0.14318629 -0.17715518 0.030741302 -0.36520287 0.6321313 -0.02108394 0.16913119 0.06968313 0.32888567 0.5172675 0.018940505 0.32724813 0.054064266 0.05764804 0.07217162 0.68136847 0.40849438 0.08608836 -0.4630562 0.21556199 0.11998032
二喜 -0.13686036 0.3094506 0.06988972 0.020345353 0.051415052 -0.49419364 0.2086466 0.56718504 -0.16584037 -0.26212838 -0.11297294 -0.41260582 0.089119434 0.08585032 0.12425508 -0.14743929 0.052056503 -0.41118956 -0.13285547 -0.4852907 0.19857953 0.07109101 0.13688704 -0.19782609 -0.1989061 0.17189859 -0.18830281 -0.26455873 -0.11044459 -0.06653085 0.32590812 0.032287583 0.10429351 -0.041802064 -0.09335962 0.22250327 -0.026800996 -0.24783726 -0.20875959 -0.51154554 -0.0679411 -0.118550114 -0.113423415 -0.170849 0.21162705 -0.08319395 -0.13564266 0.02269242 0.023407295 0.24301112 0.2032587 -0.12867905 -0.06281491 -0.057201304 -0.18600276 0.24431826 0.25968972 0.016273849 -0.31620592 0.17716967 0.05551875 0.13764076 -0.10494859 -0.11182953 -0.30587295 0.2448969 0.12284933 0.18709025 -0.396234 0.39300126 -0.3725249 0.05261247 0.34638238 -0.10266831 0.302976 -0.06521202 -0.02247386 -0.037725393 -0.2978903 0.11930563 -0.14042206 0.026788881 -0.30541313 0.5231415 -0.020526372 0.13198435 0.047529805 0.27491343 0.42990386 0.017294079 0.26195344 0.051679585 0.049477063 0.067688465 0.5568523 0.31791207 0.05964587 -0.3778673 0.18126822 0.10737585
队长 -0.1514007 0.38232654 0.10134283 0.004839721 0.058689624 -0.6006088 0.25280246 0.68909806 -0.20231093 -0.3222159 -0.12991765 -0.5023095 0.11905439 0.09582103 0.16012271 -0.18417235 0.06071598 -0.48969647 -0.16513754 -0.5904617 0.23673256 0.079786405 0.17936666 -0.24236487 -0.25967965 0.21893604 -0.21968587 -0.33772793 -0.12328166 -0.07159024 0.3808704 0.034054358 0.13236995 -0.055106964 -0.095625244 0.2707144 -0.032956008 -0.30757174 -0.26203835 -0.6275012 -0.088839225 -0.15289834 -0.14083979 -0.19392167 0.2501328 -0.11239229 -0.16577841 0.019329892 0.015803697 0.28629687 0.23756461 -0.16830464 -0.08159972 -0.076596506 -0.22925512 0.3064252 0.31483528 0.020707795 -0.3830617 0.21936467 0.06344722 0.15527889 -0.13560326 -0.1308539 -0.37622622 0.30846524 0.14611597 0.2313876 -0.4793524 0.4770069 -0.4514022 0.067104995 0.42219266 -0.10214091 0.36827642 -0.05917758 -0.024333362 -0.04999851 -0.37508702 0.15126409 -0.17051499 0.046856217 -0.36104798 0.63394135 -0.037152775 0.17058077 0.06350764 0.33555585 0.5197933 0.018878384 0.33693707 0.054101568 0.053012613 0.08039019 0.65950423 0.39497665 0.09197871 -0.47438192 0.21066588 0.11688383
家 -0.16423582 0.43028593 0.10386498 0.021154737 0.07322391 -0.6565733 0.281275 0.7569896 -0.22274119 -0.34849134 -0.14757922 -0.54318374 0.11875676 0.10988377 0.17710961 -0.21400635 0.059408866 -0.5407204 -0.1880495 -0.6476354 0.25925198 0.0795516 0.19065848 -0.2699573 -0.28731343 0.2246198 -0.24855278 -0.35969722 -0.14025536 -0.08197087 0.42085147 0.029189527 0.13427621 -0.06764943 -0.11218983 0.29012296 -0.038105864 -0.33578718 -0.28834474 -0.694686 -0.10489603 -0.16768445 -0.14474095 -0.21288617 0.27944064 -0.11883238 -0.1677022 0.021365896 0.02433416 0.322202 0.26923692 -0.18938649 -0.07407113 -0.08235468 -0.26130143 0.33599737 0.35397497 0.030480957 -0.4304994 0.23441423 0.08091937 0.17587055 -0.15105537 -0.14852747 -0.40765727 0.34158057 0.17863253 0.27154586 -0.5387556 0.53098565 -0.50476956 0.07233392 0.47179645 -0.116446994 0.40551397 -0.06935043 -0.0394177 -0.035835683 -0.41086212 0.153093 -0.19385628 0.050588124 -0.41262156 0.6861712 -0.021629428 0.18300107 0.06866232 0.3585684 0.5738737 0.024028853 0.36664006 0.05475633 0.04960013 0.08367915 0.73807615 0.4289993 0.08226803 -0.5154272 0.22341086 0.13429055
娘 -0.144893 0.33971143 0.094209224 0.0020100307 0.06362273 -0.5247357 0.22916026 0.6199917 -0.1669479 -0.2867711 -0.12935847 -0.4522364 0.09138054 0.087564535 0.13349509 -0.17734511 0.052592486 -0.43208438 -0.14427097 -0.5220962 0.21140665 0.07268581 0.15591641 -0.20427333 -0.22625262 0.1990487 -0.20533831 -0.2901909 -0.11981711 -0.059987593 0.33612633 0.032391235 0.108675644 -0.05560977 -0.09691084 0.22559817 -0.038744893 -0.28093764 -0.22636926 -0.56046706 -0.080184706 -0.12844907 -0.12168981 -0.18095542 0.2216587 -0.103178024 -0.1355163 0.011535665 0.013581415 0.26062846 0.22418098 -0.15568648 -0.06584206 -0.077047914 -0.20518547 0.27026373 0.28450295 0.02331956 -0.34150055 0.20014039 0.053434815 0.13539375 -0.11545939 -0.11653661 -0.33109817 0.27297685 0.1492568 0.21326175 -0.44136968 0.43337664 -0.40241894 0.056258272 0.3860484 -0.105201475 0.3276478 -0.0625129 -0.023181288 -0.04436354 -0.33957678 0.13010909 -0.16504978 0.039636865 -0.33068776 0.5705616 -0.028963145 0.14880465 0.06842135 0.293937 0.45584944 0.014394938 0.29677093 0.044377618 0.054430537 0.057717104 0.59848464 0.35525545 0.08241692 -0.4107982 0.19217461 0.1201262
想 -0.18839374 0.44221768 0.09612616 0.012809836 0.067545906 -0.6696044 0.28066653 0.75954163 -0.22684513 -0.3526202 -0.16183731 -0.5545773 0.114721544 0.10901536 0.18335414 -0.2045264 0.071855575 -0.5422395 -0.18793643 -0.65846574 0.27630308 0.093155876 0.20309071 -0.25975657 -0.2761825 0.24787427 -0.25759888 -0.3819933 -0.14628947 -0.078107156 0.44024587 0.043904863 0.14442821 -0.07604244 -0.10887056 0.29053512 -0.04912711 -0.3341867 -0.2847061 -0.70760804 -0.101632826 -0.1740845 -0.14562808 -0.22185454 0.2861907 -0.126434 -0.18604663 0.020148063 0.033125497 0.3182058 0.2738224 -0.18900266 -0.0911004 -0.086781375 -0.2603499 0.34749618 0.3668222 0.022624798 -0.44143212 0.25130612 0.08596707 0.184037 -0.15082945 -0.14007156 -0.40358886 0.34064648 0.18369584 0.2751918 -0.5372216 0.5401054 -0.51449203 0.05974225 0.47147956 -0.12215098 0.4209149 -0.068956 -0.037578736 -0.039925918 -0.41343334 0.15720232 -0.19489872 0.03504839 -0.40649596 0.7097058 -0.02654078 0.19095498 0.08555904 0.38061368 0.5787762 0.009822058 0.37792403 0.06709947 0.0637238 0.080193974 0.7425712 0.44047904 0.10350008 -0.52720463 0.22714803 0.14925559
问 -0.14067881 0.36785072 0.08865914 0.0036269284 0.06983912 -0.5544252 0.24399477 0.6404406 -0.17411898 -0.30195418 -0.119390205 -0.47349018 0.09558694 0.08563716 0.13838808 -0.1685165 0.06254348 -0.456254 -0.15271877 -0.54394364 0.23175295 0.08151029 0.1609136 -0.22410552 -0.2422299 0.20276994 -0.20325275 -0.3140688 -0.113385946 -0.0747248 0.3471409 0.029403294 0.11277152 -0.06557187 -0.1009962 0.23627293 -0.023559708 -0.27698535 -0.23718166 -0.57630247 -0.07241538 -0.1421314 -0.11614174 -0.18207455 0.24435158 -0.09002525 -0.15569226 0.01643933 0.022266068 0.27026996 0.23041362 -0.15050368 -0.06359959 -0.08290321 -0.21842311 0.27749494 0.30881003 0.025555331 -0.36358166 0.20530747 0.058367956 0.14104816 -0.12624568 -0.11724433 -0.33588573 0.28886834 0.14293137 0.21927896 -0.44901618 0.44455415 -0.42972198 0.044865984 0.4031564 -0.106028 0.33954236 -0.07183735 -0.0193237 -0.03718998 -0.3427371 0.13663259 -0.17065625 0.03717141 -0.33924618 0.57332164 -0.019704482 0.15701774 0.07199247 0.31526533 0.47556633 0.0073624235 0.3141708 0.05076892 0.05522157 0.074702546 0.6196264 0.36199442 0.07704827 -0.42626867 0.18694878 0.12628351
死 -0.16076075 0.37188083 0.0913356 0.019877244 0.05685114 -0.57073206 0.23976704 0.65724635 -0.19275692 -0.2914258 -0.1372658 -0.48822638 0.09958536 0.10447222 0.14142603 -0.18607205 0.048821934 -0.45962134 -0.1561346 -0.55349195 0.2266483 0.08371421 0.15931597 -0.22852947 -0.2479128 0.20303375 -0.21289556 -0.31150916 -0.1253174 -0.081994146 0.36436388 0.026217626 0.11982002 -0.050717272 -0.10481296 0.25961325 -0.025336372 -0.30061632 -0.25383705 -0.59107137 -0.075423725 -0.15055825 -0.13486946 -0.1847104 0.25017658 -0.09343033 -0.16273406 0.009698742 0.024778968 0.26287863 0.22885595 -0.16452883 -0.061725017 -0.06730205 -0.22437756 0.29923272 0.31681296 0.018092541 -0.3645314 0.21465169 0.07072303 0.14763734 -0.13761236 -0.13008963 -0.34280515 0.28421256 0.14586401 0.23959833 -0.45897394 0.46855047 -0.44444034 0.05450746 0.4138565 -0.112571895 0.3588767 -0.05689177 -0.03038523 -0.04141023 -0.35718057 0.13138631 -0.1760709 0.03265701 -0.3552354 0.60432035 -0.032071225 0.1645947 0.058919195 0.310852 0.50192904 0.02569916 0.3110564 0.05372551 0.046255823 0.06092413 0.6309386 0.38672847 0.08645263 -0.43646234 0.2062787 0.12738006
春生 -0.1319627 0.31149492 0.08374114 0.009914663 0.06070184 -0.49175078 0.21203463 0.57851636 -0.16316879 -0.2617591 -0.121017665 -0.4255539 0.08326838 0.09307042 0.11960872 -0.1493715 0.039065626 -0.40681645 -0.14261185 -0.49485475 0.20953758 0.07444853 0.14746124 -0.1920618 -0.21142599 0.18791497 -0.17556408 -0.28928423 -0.11360428 -0.063252255 0.3249625 0.023911944 0.10207189 -0.061087914 -0.08292219 0.22455986 -0.02440681 -0.25866503 -0.22116667 -0.53324264 -0.07338826 -0.13559525 -0.11749891 -0.16129036 0.22225738 -0.084537305 -0.14405382 0.00980808 0.026953744 0.24187377 0.19854316 -0.14809681 -0.06151694 -0.063614324 -0.19218162 0.2581887 0.26224792 0.00823403 -0.33435798 0.1801925 0.06452526 0.13646379 -0.1145517 -0.105979405 -0.30250362 0.25507098 0.1208112 0.20621249 -0.39441064 0.403068 -0.3705277 0.055443875 0.35344666 -0.094072595 0.30183014 -0.06732277 -0.017430428 -0.04028179 -0.29729512 0.11474479 -0.14432852 0.021033874 -0.31391227 0.50899905 -0.028706674 0.137839 0.049050916 0.2696383 0.4197122 0.0076590595 0.27858937 0.04771566 0.052930925 0.067456596 0.5437138 0.33498007 0.05995882 -0.38960472 0.16238837 0.1075072
看着 -0.14317955 0.35703826 0.088339984 0.005263338 0.06765059 -0.546296 0.24402846 0.6257781 -0.18340863 -0.29106373 -0.13141191 -0.46215016 0.1092315 0.090418935 0.14856617 -0.18194656 0.055644467 -0.44571805 -0.14524266 -0.53932464 0.22701517 0.06862747 0.15099433 -0.22188765 -0.23381338 0.19120328 -0.20452431 -0.31209448 -0.11858689 -0.07054166 0.34922358 0.03508203 0.102665 -0.060867473 -0.08871029 0.24884818 -0.042925555 -0.27144188 -0.22739455 -0.5764383 -0.07137117 -0.1474425 -0.11401711 -0.17729273 0.23584124 -0.100663334 -0.15149201 0.01472307 0.02364686 0.26229945 0.22988655 -0.14212672 -0.059309427 -0.076536685 -0.20134635 0.27897912 0.29810512 0.02276678 -0.35788557 0.20166475 0.058921456 0.13850898 -0.13375044 -0.1188038 -0.32608917 0.27816725 0.14372545 0.22237062 -0.43184236 0.4321455 -0.41297176 0.043667 0.39190283 -0.091686994 0.34188816 -0.057566542 -0.020075291 -0.030164218 -0.33158365 0.13900223 -0.16471288 0.043711428 -0.33090195 0.56874055 -0.015309561 0.1567042 0.071436785 0.30745536 0.47904125 0.014940012 0.30885857 0.052289218 0.055396866 0.06390568 0.6133019 0.3683402 0.07400093 -0.42775902 0.19283631 0.107750095
孩子 -0.15812401 0.39516962 0.091744065 0.017458526 0.07628569 -0.63064134 0.27580068 0.7304653 -0.21512932 -0.33729926 -0.15264422 -0.53125125 0.11778133 0.11743199 0.16974814 -0.19899437 0.063896805 -0.5050895 -0.16781566 -0.60905665 0.2595641 0.07851042 0.17880055 -0.25644216 -0.25992694 0.2229787 -0.24161968 -0.3451391 -0.12994383 -0.08364476 0.41729698 0.03419727 0.12513933 -0.06595246 -0.10953823 0.2754155 -0.036510218 -0.3179297 -0.26294863 -0.67226213 -0.094591215 -0.16652854 -0.13431403 -0.20613532 0.26768953 -0.1087602 -0.177106 0.0205708 0.03478579 0.29967412 0.25204173 -0.18616235 -0.08163598 -0.08492775 -0.24134389 0.33477405 0.33663315 0.024710242 -0.40385315 0.23160577 0.076860435 0.1775403 -0.13695478 -0.13292475 -0.39417914 0.33209342 0.17047891 0.2631971 -0.51398605 0.51324224 -0.47619766 0.056769565 0.45835477 -0.11597821 0.3972055 -0.07701002 -0.03564276 -0.037774518 -0.4031648 0.14310747 -0.19172557 0.03797998 -0.39330366 0.67026335 -0.018758865 0.17555727 0.07399117 0.35399657 0.5428301 0.007950046 0.35535732 0.050916154 0.06225452 0.08603731 0.70808 0.42224675 0.09313425 -0.4963565 0.2242864 0.13267261
坐 -0.14162461 0.36192662 0.08856851 0.018977756 0.051680896 -0.54061097 0.24710052 0.6283487 -0.18054684 -0.2958676 -0.12651935 -0.45735753 0.109050065 0.09491619 0.14575605 -0.17395563 0.06380812 -0.45527664 -0.1625349 -0.5411165 0.2200109 0.07892027 0.15159602 -0.22210062 -0.24218588 0.20232846 -0.20603037 -0.3171732 -0.11645404 -0.060123846 0.35324916 0.02520431 0.113979414 -0.059086017 -0.10462849 0.25164488 -0.03945059 -0.2886057 -0.23837358 -0.5856707 -0.07914476 -0.13030884 -0.117351264 -0.17742816 0.23686591 -0.09615294 -0.15198795 0.00934661 0.023717998 0.26681274 0.2145001 -0.15959522 -0.07930352 -0.07841077 -0.20903227 0.29160956 0.30118006 0.023528578 -0.35409817 0.1996611 0.06455601 0.13586195 -0.12781687 -0.12612863 -0.33620897 0.288222 0.13715734 0.21783586 -0.45451605 0.44240195 -0.42483383 0.05461303 0.3965941 -0.108083375 0.33405855 -0.063619524 -0.024495102 -0.03168143 -0.3452301 0.12870091 -0.16813083 0.032793418 -0.3384443 0.57967997 -0.017523078 0.15101258 0.06305508 0.30247262 0.4735472 0.0040404354 0.30334446 0.050029002 0.040315732 0.07559241 0.60449654 0.35650745 0.0679605 -0.4249849 0.19629505 0.12602055
吃 -0.14930794 0.3658168 0.08590812 0.02340723 0.06526673 -0.55684274 0.24225195 0.6485615 -0.17984003 -0.29852715 -0.12875526 -0.47372264 0.108544685 0.10047343 0.15056443 -0.18507262 0.0498936 -0.4564853 -0.16594085 -0.5514024 0.22632281 0.08002967 0.15509629 -0.2161608 -0.23952736 0.1964244 -0.20341705 -0.31932658 -0.13166189 -0.07616034 0.3655291 0.022882063 0.11517041 -0.05676414 -0.10270211 0.25196922 -0.032040894 -0.27980435 -0.23949777 -0.59370714 -0.0800296 -0.14645633 -0.13447838 -0.18362969 0.24140495 -0.110355265 -0.15996239 0.013006128 0.026862161 0.27598354 0.23702879 -0.16553353 -0.06974099 -0.07807245 -0.2260317 0.29788575 0.30853587 0.016037395 -0.37961957 0.19914125 0.06794155 0.15956439 -0.12409418 -0.13466434 -0.35798988 0.29445606 0.14568764 0.2244377 -0.4516643 0.45004746 -0.42584264 0.05281899 0.39602053 -0.104854666 0.35312423 -0.055548232 -0.026199572 -0.033962972 -0.3578966 0.13391154 -0.1704975 0.03533802 -0.34999686 0.5899086 -0.031272665 0.1678566 0.06799412 0.3127447 0.4823871 0.022877168 0.30496415 0.052163646 0.052333195 0.07733601 0.6374491 0.37264463 0.08201653 -0.44502366 0.18702772 0.115240246
哭 -0.14690503 0.36560166 0.097864404 0.021952812 0.052411642 -0.54620457 0.23485796 0.63724726 -0.18418835 -0.28496194 -0.124309175 -0.46073297 0.11216981 0.09503241 0.13759449 -0.18391827 0.06283114 -0.46249774 -0.15953943 -0.5384402 0.22208664 0.06908738 0.15768094 -0.21845561 -0.23471971 0.20645775 -0.21004042 -0.3076152 -0.11445388 -0.06838696 0.36596 0.02645564 0.11885185 -0.06705201 -0.09100889 0.23497915 -0.03514753 -0.29478925 -0.23737465 -0.59115285 -0.085590936 -0.14046974 -0.121527016 -0.18901893 0.23258331 -0.1037117 -0.1514793 0.014425124 0.010851569 0.26581332 0.23498961 -0.1495393 -0.08066725 -0.071217746 -0.22202957 0.27604386 0.30003107 0.021192014 -0.37192115 0.19693224 0.06555029 0.15398866 -0.13699935 -0.11551809 -0.34055692 0.28408727 0.15698065 0.22871779 -0.45448074 0.45369905 -0.4210233 0.059805915 0.39695925 -0.1081673 0.34328955 -0.07107672 -0.028929561 -0.0321953 -0.34021762 0.14464058 -0.17172836 0.02843744 -0.33653635 0.5847419 -0.029867355 0.15698825 0.06623392 0.30746198 0.47584784 0.019740632 0.3170055 0.0418014 0.049834244 0.06555536 0.6122794 0.36714515 0.070413485 -0.42761225 0.18778953 0.12143355
喊 -0.14563236 0.35426173 0.08858018 0.023444263 0.061051726 -0.5449031 0.23402818 0.6240573 -0.18322141 -0.29364917 -0.13292706 -0.46142027 0.10689561 0.09735799 0.14979897 -0.1653213 0.04653859 -0.44040778 -0.1441839 -0.528628 0.2228011 0.07960364 0.14868759 -0.20682402 -0.22401717 0.20362778 -0.20856333 -0.29798272 -0.11284812 -0.070396274 0.3448493 0.035477173 0.10307189 -0.061799366 -0.090005845 0.24853675 -0.024116838 -0.2838059 -0.24302746 -0.5623174 -0.07442041 -0.1421406 -0.12884821 -0.1871912 0.23055229 -0.09880067 -0.14636837 0.017736187 0.01803223 0.25427246 0.23129427 -0.1569821 -0.0754777 -0.065055266 -0.2086307 0.28800687 0.28808492 0.012827024 -0.35476097 0.19571497 0.05468779 0.14285603 -0.122788765 -0.11494032 -0.32606772 0.27966478 0.13748653 0.21742195 -0.44438076 0.44514456 -0.4226074 0.05333847 0.38673586 -0.108677 0.32636037 -0.057264112 -0.036828034 -0.038059205 -0.3349338 0.13909684 -0.1666225 0.03743233 -0.32683587 0.5640101 -0.02708398 0.15728827 0.068039946 0.3039226 0.4775101 0.013316044 0.3003507 0.045794994 0.040162787 0.069982104 0.60795283 0.35121575 0.07523784 -0.42578965 0.19034968 0.12337146
全 -0.19815409 0.46086815 0.123426594 0.008383956 0.0689435 -0.72088116 0.30354005 0.8302708 -0.23637825 -0.38370708 -0.17489293 -0.6058195 0.1304934 0.1276615 0.19682351 -0.22367105 0.08005369 -0.6007684 -0.19372009 -0.70896727 0.30058563 0.10068994 0.21409802 -0.29937848 -0.31878352 0.26978412 -0.27130154 -0.40650895 -0.15245044 -0.092135936 0.48175508 0.04067749 0.13811456 -0.084535256 -0.12761638 0.3127554 -0.035149917 -0.37095553 -0.32138348 -0.7556934 -0.095884815 -0.17914328 -0.1547679 -0.2565485 0.3153535 -0.13874231 -0.20085736 0.024193576 0.027850263 0.35060364 0.30072218 -0.20205785 -0.08412815 -0.08785892 -0.29027912 0.3825723 0.40063232 0.037450094 -0.47317392 0.2606891 0.08195242 0.19260915 -0.17057124 -0.15202382 -0.4463223 0.37458572 0.19381948 0.28102478 -0.58153087 0.5991341 -0.5582318 0.07172397 0.5108418 -0.14306669 0.4569285 -0.08945044 -0.028452104 -0.049429636 -0.45418954 0.17724688 -0.22023985 0.041927557 -0.44724533 0.7688195 -0.03553917 0.20343962 0.073941335 0.41655287 0.6174834 0.026359217 0.40550724 0.0560326 0.05878377 0.08068105 0.8048352 0.49225256 0.11005596 -0.56886953 0.25410903 0.16590904
眼睛 -0.1782991 0.4161651 0.105148226 0.008119086 0.061652366 -0.65318984 0.2888893 0.7491503 -0.21921167 -0.3504488 -0.15067142 -0.5402898 0.11637288 0.1124036 0.16408803 -0.20118618 0.064217605 -0.5196043 -0.1928182 -0.6383667 0.25110132 0.087280475 0.1793183 -0.2524093 -0.28106478 0.22489986 -0.23457994 -0.37109226 -0.14062941 -0.08892609 0.43027923 0.045569927 0.1335706 -0.06271575 -0.10749634 0.28019387 -0.02888022 -0.34231505 -0.26773623 -0.68015444 -0.09829007 -0.16937403 -0.13449179 -0.22381689 0.28821546 -0.12036011 -0.16641398 0.020727294 0.034019567 0.30664358 0.2706986 -0.17285532 -0.07738187 -0.08481899 -0.2464207 0.34208715 0.3593781 0.033043206 -0.41862515 0.24365455 0.08615172 0.17191392 -0.15133508 -0.14279085 -0.39800543 0.3310616 0.16099066 0.25098068 -0.52787095 0.5330781 -0.499446 0.053555105 0.46844307 -0.11854298 0.399748 -0.07258677 -0.030799914 -0.037721284 -0.40060565 0.1570101 -0.18050598 0.043178197 -0.40509394 0.68746567 -0.022153089 0.18443823 0.07085489 0.36702293 0.5661948 0.022692641 0.35844463 0.048434503 0.058704395 0.079922706 0.72736955 0.42208415 0.10132135 -0.51560247 0.23259604 0.12592155
苦根 -0.12060956 0.32283726 0.07776569 0.009166597 0.05314409 -0.48703572 0.20467813 0.56743276 -0.15996268 -0.25368783 -0.12279498 -0.40346035 0.08973165 0.084502526 0.117854945 -0.15176557 0.055191938 -0.39322641 -0.14416331 -0.48760873 0.19210094 0.0664824 0.13307826 -0.20411453 -0.20912236 0.17592639 -0.19068624 -0.2782918 -0.10721665 -0.055837274 0.32076064 0.026955934 0.09276729 -0.059086654 -0.086384244 0.2239358 -0.023745324 -0.2541814 -0.2090078 -0.52720505 -0.07461242 -0.12887225 -0.10371757 -0.16823116 0.20589542 -0.09646274 -0.1340719 0.009018534 0.017706819 0.23119698 0.1992996 -0.1411628 -0.07032236 -0.066985264 -0.18854679 0.24855301 0.25687274 0.013372676 -0.33085012 0.17781593 0.06531414 0.127874 -0.11113639 -0.10433449 -0.2926436 0.25440958 0.13727774 0.18731135 -0.40545723 0.38995808 -0.38145792 0.038859475 0.34131673 -0.09548124 0.30283403 -0.060942195 -0.033855535 -0.028762683 -0.30471498 0.122004956 -0.13606967 0.037593033 -0.30452442 0.51935214 -0.026432568 0.13955489 0.06174732 0.2849663 0.42032835 0.015631227 0.26408178 0.040967774 0.052922662 0.056214638 0.5461714 0.31669804 0.059888225 -0.37520373 0.16619396 0.108335786
跑 -0.17937882 0.4125551 0.09283138 0.02211199 0.07846593 -0.6317338 0.28546253 0.734687 -0.2212931 -0.32866713 -0.1544901 -0.52912563 0.12333903 0.10905135 0.15978907 -0.20439748 0.06821312 -0.531641 -0.1800282 -0.63489294 0.26830852 0.08376877 0.19641009 -0.260332 -0.28274113 0.22170399 -0.240951 -0.3554697 -0.13980097 -0.07163167 0.41910043 0.03916548 0.1331981 -0.058624465 -0.11527534 0.29186675 -0.048743565 -0.3259692 -0.27662218 -0.67603916 -0.08646416 -0.16631718 -0.14566927 -0.21672224 0.27526855 -0.11808272 -0.16652344 0.013653601 0.03336265 0.30740193 0.2632324 -0.17787407 -0.07998557 -0.0845125 -0.25259966 0.33518788 0.3472489 0.020308191 -0.4296095 0.22234453 0.07781748 0.16496198 -0.14981554 -0.14783987 -0.40315947 0.32950792 0.17394535 0.25631604 -0.52836335 0.52199113 -0.49188274 0.05570509 0.45811266 -0.120399654 0.39153117 -0.08489648 -0.026161779 -0.039581686 -0.40314746 0.16158395 -0.18787086 0.046972733 -0.39867333 0.68154204 -0.02845357 0.17218465 0.06941005 0.36896962 0.5545627 0.01583461 0.3637783 0.04963127 0.055900052 0.06870827 0.7107952 0.41847888 0.094189644 -0.5003026 0.22961716 0.13793159
脑袋 -0.15073884 0.37533712 0.08732946 0.016128479 0.07278012 -0.56798404 0.2529445 0.6491271 -0.18267249 -0.29589072 -0.12855798 -0.48924407 0.10500707 0.10174178 0.1429062 -0.18883955 0.06169009 -0.47496524 -0.16703464 -0.5497406 0.22315356 0.08606779 0.16709056 -0.2230973 -0.24638021 0.19853416 -0.21980077 -0.32182974 -0.13041905 -0.07507264 0.379451 0.023630103 0.10955056 -0.065536976 -0.10571921 0.243771 -0.03551519 -0.28362218 -0.23637083 -0.60754484 -0.092498615 -0.14854494 -0.13677087 -0.19850205 0.24041235 -0.097194254 -0.16340213 0.018672999 0.024949135 0.2795155 0.23173222 -0.17088553 -0.06614893 -0.08279706 -0.21749039 0.29572487 0.3170412 0.022378625 -0.37768483 0.2137587 0.06255592 0.14352001 -0.12867925 -0.12999165 -0.35475162 0.28835276 0.13987578 0.22973908 -0.46475393 0.45860958 -0.43535095 0.058797184 0.41539407 -0.11496024 0.34559396 -0.07661288 -0.039997436 -0.042631462 -0.35647452 0.1294088 -0.17290452 0.03318114 -0.34691158 0.60217047 -0.016336484 0.15105395 0.060530823 0.31842703 0.5030273 0.014799222 0.31729516 0.051659055 0.05457119 0.06039612 0.6414757 0.38586605 0.08651838 -0.44411948 0.19037738 0.11555063
站 -0.15472671 0.39498568 0.08663517 0.019445643 0.062308338 -0.6020845 0.27076858 0.69690037 -0.20041463 -0.31678483 -0.14707054 -0.5145676 0.12221147 0.11403782 0.1496482 -0.18597622 0.06966215 -0.50314075 -0.17085168 -0.6010296 0.2557515 0.0821812 0.18425082 -0.23352455 -0.2558744 0.21200027 -0.2283088 -0.3417648 -0.13177411 -0.0747221 0.40701345 0.038221363 0.13493325 -0.074530214 -0.11265807 0.2720934 -0.03239338 -0.31542602 -0.26882255 -0.64872384 -0.09955193 -0.14632803 -0.13245693 -0.21424787 0.2667059 -0.103956275 -0.17090265 0.0141026825 0.024416057 0.30351233 0.23969226 -0.17203076 -0.08402006 -0.083699256 -0.2354206 0.30989015 0.3278024 0.022938674 -0.409482 0.23099208 0.07699478 0.15319115 -0.14398625 -0.13321 -0.38313866 0.30460006 0.15102543 0.24087888 -0.48713973 0.5017218 -0.46617106 0.04989846 0.44341007 -0.10885615 0.3768534 -0.08033822 -0.034864157 -0.04031998 -0.3880715 0.15092148 -0.17872943 0.03082157 -0.3879817 0.6491964 -0.03469848 0.1652969 0.07583254 0.34182 0.52578634 0.008765361 0.33686095 0.05932935 0.04917444 0.0686945 0.6784544 0.40274453 0.07690024 -0.48999974 0.22288805 0.1368418
笑 -0.1397699 0.3164972 0.07818697 0.00823993 0.065292075 -0.5012994 0.21298744 0.57722634 -0.17865634 -0.26512465 -0.12178517 -0.42622265 0.09789995 0.09498945 0.13692659 -0.16862291 0.056488566 -0.42326376 -0.15071881 -0.5019371 0.20185919 0.06904077 0.14208215 -0.20038038 -0.20483765 0.18833826 -0.18778507 -0.27372065 -0.1098757 -0.065788835 0.32088277 0.034731068 0.0945643 -0.05557358 -0.07929131 0.22182454 -0.027874406 -0.26667932 -0.21013042 -0.52516603 -0.08354304 -0.13186249 -0.10453635 -0.16758408 0.21895796 -0.08873565 -0.14808252 0.027606495 0.0181992 0.23797888 0.20993333 -0.14094219 -0.06878384 -0.060979974 -0.19886228 0.2548065 0.27999932 0.025723621 -0.32300213 0.18530342 0.061155345 0.12534255 -0.11312006 -0.10351528 -0.310746 0.25598043 0.12788503 0.20230745 -0.4187129 0.4144737 -0.38535175 0.05809925 0.35515133 -0.10048621 0.3049171 -0.06649228 -0.023809085 -0.029767457 -0.31335866 0.12628736 -0.15828063 0.030661987 -0.32136947 0.53458256 -0.025046587 0.15062587 0.05365413 0.29008847 0.44127434 0.013589533 0.27916694 0.052806474 0.048533253 0.07018119 0.5681708 0.3422601 0.07501698 -0.40512988 0.17078759 0.10761234
城里 -0.13151895 0.32019457 0.077410474 0.019072857 0.049845412 -0.48922512 0.21965426 0.5671683 -0.15845896 -0.25549895 -0.11580513 -0.41999045 0.0934228 0.07465864 0.124810934 -0.1664431 0.047859058 -0.41086358 -0.13142602 -0.48536193 0.20790444 0.05705697 0.13836358 -0.19432992 -0.21265963 0.17814527 -0.18601711 -0.27694127 -0.114226244 -0.07163439 0.32510504 0.028540006 0.10682057 -0.059614666 -0.08186684 0.20787528 -0.02228026 -0.24782579 -0.21672273 -0.51090056 -0.07791196 -0.13369788 -0.108139955 -0.16403809 0.20505494 -0.09685228 -0.124366865 0.017905258 0.020756599 0.23893766 0.19729222 -0.13660413 -0.059504133 -0.055068497 -0.19650419 0.2554484 0.27214345 0.010876559 -0.33251902 0.18777387 0.06625656 0.12601775 -0.10762935 -0.10953859 -0.30695188 0.2501772 0.1242958 0.20438261 -0.39694816 0.38935143 -0.37693933 0.043896604 0.35884747 -0.09305681 0.3102771 -0.05591136 -0.030391343 -0.025216242 -0.30397403 0.114285685 -0.15037589 0.027715908 -0.31132057 0.52078915 -0.03009983 0.13211241 0.06076749 0.2761634 0.43144003 0.008116666 0.27183706 0.046379432 0.049929574 0.060799956 0.5604775 0.33157095 0.061253786 -0.38808796 0.16357034 0.09800056
听 -0.1252163 0.2885474 0.08246816 0.012815836 0.049406864 -0.46676758 0.1911767 0.5216865 -0.14399582 -0.24682315 -0.10268518 -0.39291388 0.095394276 0.08278443 0.120950684 -0.15091874 0.046667695 -0.38184857 -0.12302508 -0.44823486 0.18843411 0.066921294 0.13875253 -0.19126496 -0.18680078 0.16805227 -0.17777804 -0.24929477 -0.10361509 -0.050864603 0.29750296 0.03335917 0.09796567 -0.05319166 -0.08355148 0.21460278 -0.025367036 -0.24484342 -0.19794084 -0.48956376 -0.065427884 -0.12655634 -0.096803196 -0.154591 0.20762889 -0.0774706 -0.13122806 0.020278359 0.01805554 0.21271 0.19790374 -0.11938133 -0.047667693 -0.06533512 -0.18813965 0.24274702 0.24176377 0.02617476 -0.30030376 0.17388818 0.061975673 0.12217277 -0.11059183 -0.102534436 -0.274331 0.22871855 0.118858494 0.18433195 -0.37128302 0.38122225 -0.35899565 0.048337195 0.32656705 -0.08335507 0.2923359 -0.050298296 -0.028063059 -0.03551554 -0.2804154 0.122546606 -0.13081865 0.025091052 -0.28763306 0.4806465 -0.025438903 0.13292149 0.04605229 0.2514387 0.40906817 0.021579258 0.26406398 0.04258626 0.033975888 0.04925669 0.5193182 0.29752994 0.056878 -0.36096373 0.15739372 0.088577226
回来 -0.14375718 0.35389307 0.08036961 0.010836772 0.06421666 -0.559878 0.23662765 0.6515574 -0.17694922 -0.303447 -0.12064077 -0.46259022 0.09597664 0.09395252 0.15178376 -0.17145823 0.050800998 -0.46610722 -0.15331812 -0.5579609 0.21966366 0.07450506 0.16845594 -0.22987968 -0.23393242 0.20022176 -0.2044092 -0.3082154 -0.12168813 -0.06312594 0.36356393 0.024004284 0.12468171 -0.06347539 -0.09259397 0.24553421 -0.04150529 -0.2957606 -0.23593725 -0.5923243 -0.08110058 -0.15183768 -0.13100445 -0.19711526 0.25090083 -0.108315684 -0.14724597 0.016829824 0.022716101 0.27857685 0.22556135 -0.1647793 -0.06904422 -0.06593192 -0.20912367 0.2849548 0.3062196 0.02644871 -0.3741891 0.21130092 0.06131817 0.15186244 -0.1255478 -0.12067547 -0.35023165 0.28961024 0.15476012 0.23401408 -0.4652668 0.45904034 -0.42483917 0.050671626 0.41132256 -0.10773942 0.34390742 -0.072864644 -0.032620974 -0.038698334 -0.3545179 0.12922803 -0.1587135 0.029307587 -0.35475326 0.59900486 -0.014718061 0.161059 0.06435438 0.31469414 0.48425642 0.020935135 0.3035233 0.05102504 0.0553477 0.0661677 0.62873834 0.3787568 0.08917344 -0.4392309 0.20523417 0.11167781
拉 -0.12192885 0.30325955 0.06954925 0.013740498 0.04901629 -0.47941774 0.20996886 0.5531746 -0.1643645 -0.25951716 -0.11506353 -0.39148444 0.077038705 0.09133706 0.123751104 -0.1499914 0.044601943 -0.39485738 -0.13185063 -0.45826352 0.1839303 0.06320416 0.1396231 -0.18488847 -0.19423701 0.1672328 -0.16747053 -0.2720961 -0.108474255 -0.05068805 0.31498992 0.0175052 0.09459586 -0.060205296 -0.08560776 0.21700214 -0.036298748 -0.23778643 -0.19749911 -0.506582 -0.08126179 -0.12226809 -0.10839081 -0.15676165 0.2143515 -0.08169372 -0.13047642 0.017318986 0.011001264 0.22621223 0.19272102 -0.123443484 -0.06642514 -0.070610344 -0.18254282 0.24774998 0.24945953 0.010829635 -0.31395134 0.16947056 0.0478942 0.12197937 -0.114205286 -0.10077233 -0.2912254 0.24261947 0.12397884 0.18708454 -0.38320026 0.38417843 -0.35744438 0.043620363 0.33114567 -0.088025816 0.30269918 -0.06259339 -0.031419627 -0.03476996 -0.28710008 0.11385145 -0.12931173 0.020559259 -0.28661942 0.49002165 -0.010952966 0.13461757 0.058779933 0.2606065 0.42021978 0.016469406 0.255763 0.032387953 0.05050479 0.052247435 0.5217191 0.3201544 0.06254311 -0.3800017 0.17766665 0.09780155
快 -0.14419375 0.3413876 0.078050494 0.008646669 0.052860044 -0.5363557 0.22245225 0.62306184 -0.17142887 -0.2851345 -0.122355215 -0.45512497 0.1058073 0.09898597 0.13954297 -0.17666705 0.049042616 -0.43167403 -0.15326032 -0.5190783 0.2250983 0.077715956 0.15087001 -0.20723468 -0.22946921 0.18481192 -0.18982965 -0.30874696 -0.11859067 -0.068742014 0.33610728 0.0293244 0.114601426 -0.06158049 -0.09972261 0.24268654 -0.03629415 -0.28203502 -0.22828935 -0.5643133 -0.07023604 -0.13618353 -0.11115454 -0.19024813 0.2340358 -0.08840623 -0.14441004 0.013775677 0.022537243 0.2542015 0.20982796 -0.15774384 -0.06534126 -0.073699035 -0.19706452 0.27383265 0.29458326 0.021201726 -0.34263363 0.18446669 0.066209584 0.14034444 -0.12247303 -0.119457796 -0.33542982 0.28219134 0.13655731 0.21741205 -0.4401413 0.4360212 -0.39898697 0.04899782 0.3894972 -0.10023746 0.33671784 -0.051635865 -0.028358752 -0.038688727 -0.34268448 0.1389249 -0.15967807 0.03599664 -0.33222774 0.56960815 -0.015122239 0.14947155 0.06401096 0.30517197 0.4638563 0.020153401 0.29487526 0.045078 0.053324763 0.061878968 0.594737 0.3635634 0.06570529 -0.42135182 0.18292823 0.117596865
福贵 -0.13023983 0.32896507 0.08740603 0.013031896 0.048576552 -0.51857984 0.22220646 0.59139544 -0.17359543 -0.27806702 -0.11521355 -0.42523974 0.094208814 0.09225925 0.13426675 -0.16539234 0.042996284 -0.42272767 -0.1425017 -0.4998579 0.2163474 0.07477471 0.15604378 -0.21577664 -0.2224435 0.18027993 -0.18576388 -0.284114 -0.118932575 -0.0648368 0.34122837 0.03124453 0.10680534 -0.0618285 -0.08079615 0.22343908 -0.03674615 -0.27388144 -0.22913325 -0.5518382 -0.08616471 -0.13225566 -0.1195403 -0.17856725 0.22982293 -0.08903522 -0.1406153 0.014859485 0.03075279 0.24939647 0.21676445 -0.1373986 -0.07489944 -0.07873163 -0.19197702 0.27034637 0.27842328 0.023785468 -0.34632337 0.18242955 0.05422382 0.14637564 -0.123354614 -0.12367314 -0.32504162 0.27041814 0.13257638 0.20316488 -0.4240231 0.41934454 -0.4022653 0.047572672 0.37658307 -0.0963175 0.3161069 -0.057474863 -0.022345565 -0.04550432 -0.33229604 0.13212734 -0.16176677 0.03205272 -0.33194482 0.555021 -0.028390761 0.13849361 0.057838622 0.28933904 0.45672083 0.02241851 0.28645584 0.049311798 0.051268023 0.064666666 0.57462656 0.34459597 0.074863315 -0.39877886 0.17789346 0.09858613
村里 -0.15418825 0.3956189 0.0863013 0.013652945 0.060744435 -0.5869853 0.26836905 0.6840029 -0.1923541 -0.30719247 -0.1350691 -0.50820404 0.11294055 0.09990117 0.15321778 -0.18396221 0.0569307 -0.4776862 -0.16850123 -0.58303833 0.23834114 0.072597004 0.16273893 -0.23371413 -0.2601201 0.21690376 -0.21793506 -0.34216577 -0.13419819 -0.0825979 0.37778392 0.03396264 0.13245048 -0.069316566 -0.10828221 0.2727043 -0.026306601 -0.2967705 -0.26529196 -0.6231411 -0.09521305 -0.144056 -0.12812293 -0.20604719 0.2649178 -0.113328606 -0.15719141 0.02449761 0.030217592 0.2918248 0.24032305 -0.16356899 -0.0809861 -0.085542165 -0.22957078 0.29711804 0.3211145 0.022578303 -0.38382345 0.2092874 0.06970424 0.1543234 -0.14364533 -0.13362335 -0.36181733 0.29921892 0.15408419 0.24831067 -0.48456803 0.47915682 -0.4484153 0.05844636 0.42670646 -0.1022808 0.37516603 -0.066261396 -0.026600562 -0.044001058 -0.36382285 0.14854206 -0.18047155 0.029714853 -0.37126404 0.62003064 -0.023677502 0.15691045 0.06733126 0.33701923 0.5182153 0.01778389 0.32023838 0.057045054 0.05986949 0.07673412 0.6754924 0.3983988 0.089847095 -0.45845655 0.20681919 0.12457194
庆 -0.14794797 0.35398486 0.09306114 0.0077236053 0.058464486 -0.55889773 0.24984379 0.64542794 -0.1870202 -0.29840833 -0.13281375 -0.47064734 0.09662623 0.09217154 0.14632744 -0.17311133 0.0562075 -0.45049912 -0.1566018 -0.55040556 0.21785407 0.081575885 0.16998444 -0.22885492 -0.23285854 0.20875822 -0.21345061 -0.31777003 -0.13239573 -0.068460196 0.3594906 0.03371309 0.123082 -0.0680135 -0.107527815 0.25002515 -0.04254911 -0.29794937 -0.2492468 -0.592487 -0.08342258 -0.14226085 -0.12586403 -0.18084624 0.2508773 -0.10581 -0.14305216 0.008279198 0.02148562 0.27155536 0.22866382 -0.16178943 -0.06944334 -0.07388757 -0.22747232 0.28317744 0.29471508 0.024552215 -0.36920458 0.19591506 0.07344826 0.14925402 -0.12731315 -0.11953539 -0.34895828 0.29397672 0.13884658 0.22264399 -0.46180987 0.45383844 -0.43513432 0.06284702 0.40634745 -0.11141785 0.3519794 -0.05859776 -0.037163045 -0.033897717 -0.35815853 0.14374103 -0.15976512 0.0342579 -0.35617745 0.58810437 -0.02470254 0.15671685 0.073556885 0.31154418 0.4749662 0.005554293 0.30827153 0.050969787 0.050098743 0.06641454 0.63451636 0.37321734 0.08590874 -0.43539813 0.18834333 0.114049666
老 -0.14164329 0.31047904 0.07539808 0.019868543 0.053339563 -0.48009315 0.21089137 0.55973315 -0.15927003 -0.257102 -0.11463557 -0.41483548 0.08356673 0.08952122 0.11942699 -0.16588897 0.03776765 -0.39388898 -0.13394476 -0.47536388 0.20904809 0.059803184 0.14752246 -0.19240716 -0.20193136 0.173289 -0.1712186 -0.28223762 -0.10096121 -0.054333482 0.3192964 0.032854762 0.10904447 -0.050328888 -0.07795217 0.22116321 -0.029866228 -0.24500981 -0.20654708 -0.5230035 -0.07154568 -0.12577704 -0.104687914 -0.17225635 0.20911184 -0.08872722 -0.12905596 0.00911411 0.028051034 0.23291986 0.20664883 -0.13448192 -0.05353292 -0.07005521 -0.19641227 0.25649884 0.26546833 0.024367537 -0.33078033 0.18205842 0.057936165 0.1310903 -0.11147809 -0.11259405 -0.30760545 0.24027288 0.13218221 0.20426 -0.40754512 0.41043088 -0.37200427 0.042438824 0.34994873 -0.08833137 0.2959572 -0.056152776 -0.019423561 -0.025953833 -0.3001316 0.12222384 -0.14670284 0.023001079 -0.29548362 0.5109531 -0.02481603 0.13461772 0.063044176 0.2684203 0.42946187 0.014179212 0.2665649 0.034471184 0.036048625 0.06484466 0.53945494 0.33433428 0.065859005 -0.3975327 0.16757347 0.11326538
出 -0.1555889 0.37813076 0.0815394 0.0037864333 0.058527168 -0.57131183 0.24149108 0.65040183 -0.2005154 -0.30396727 -0.12631896 -0.49137896 0.100168034 0.10066622 0.15247838 -0.19168009 0.06381862 -0.47923702 -0.15836532 -0.55290204 0.23858371 0.08445395 0.17551716 -0.22564512 -0.25196356 0.21150473 -0.22071041 -0.32892868 -0.11981113 -0.08075756 0.36673668 0.029028185 0.121091835 -0.054673888 -0.09774574 0.25961265 -0.037655115 -0.29248536 -0.25334787 -0.6086792 -0.0925473 -0.14750753 -0.123256475 -0.18925174 0.24410713 -0.10048557 -0.14828923 0.012375655 0.018966489 0.27502134 0.23036768 -0.15324275 -0.06451439 -0.06780561 -0.21406499 0.28732964 0.31069955 0.013008065 -0.38321143 0.20055689 0.07246584 0.15380378 -0.14110926 -0.12096123 -0.35184407 0.2945314 0.14705224 0.22894642 -0.46951455 0.47363263 -0.43803912 0.0489313 0.41618997 -0.105286516 0.35152227 -0.06013834 -0.034268547 -0.03119721 -0.36339974 0.13139917 -0.1734471 0.03205746 -0.35733667 0.6030585 -0.021054802 0.16562475 0.064635776 0.32573822 0.49557206 0.015124532 0.31673193 0.04787625 0.0465868 0.06634022 0.64283323 0.38476565 0.07173446 -0.44493863 0.19908965 0.11807928
龙二 -0.16675372 0.38744083 0.091224134 0.004177375 0.06605469 -0.6111633 0.25712362 0.6882209 -0.19237296 -0.3221765 -0.14993756 -0.50151026 0.10405015 0.10045488 0.16134334 -0.199705 0.048373196 -0.5032235 -0.16483262 -0.58273566 0.24880475 0.085578054 0.17996636 -0.24727389 -0.24905305 0.22527833 -0.21995825 -0.3319391 -0.14202157 -0.07557968 0.40078968 0.033868898 0.117138095 -0.06473699 -0.10719643 0.2658673 -0.03786304 -0.30326283 -0.2592451 -0.6351362 -0.09387482 -0.14516431 -0.14240077 -0.2142684 0.2571084 -0.1144728 -0.16991508 0.019990772 0.026010169 0.29325914 0.25353703 -0.17138374 -0.07242689 -0.07968619 -0.22640294 0.3214095 0.32534474 0.024144622 -0.40461048 0.21535163 0.06424497 0.16203931 -0.14722428 -0.1396596 -0.37005278 0.3129733 0.14892511 0.24531294 -0.48643094 0.49499103 -0.467968 0.06620066 0.44451594 -0.112789355 0.3735144 -0.08134459 -0.036524303 -0.040800486 -0.37388393 0.14746161 -0.18735185 0.044316705 -0.38370597 0.64637595 -0.021777235 0.1626188 0.07178119 0.34830484 0.51873845 0.00844798 0.34510225 0.055812895 0.06619669 0.06516888 0.67708814 0.4117251 0.08392493 -0.4779806 0.20496136 0.122213826
身体 -0.16523258 0.39251843 0.09165442 0.0059105936 0.075410336 -0.59370637 0.25636947 0.6795909 -0.19389604 -0.3178948 -0.13789308 -0.50067073 0.118046835 0.109341316 0.15520307 -0.19486445 0.06108095 -0.48505515 -0.17448288 -0.58597267 0.23595479 0.08270588 0.16314968 -0.24139646 -0.24416277 0.20867199 -0.21046187 -0.33321396 -0.13563429 -0.08154488 0.3850626 0.038028304 0.113972895 -0.06883897 -0.11077537 0.26865423 -0.038045645 -0.30069616 -0.25544977 -0.63437325 -0.08955973 -0.15058775 -0.12967011 -0.20890173 0.24938396 -0.111528575 -0.15766609 0.015907206 0.024461094 0.28973374 0.2473078 -0.16338362 -0.07747488 -0.07843125 -0.23686132 0.29891497 0.32997742 0.017755982 -0.4000265 0.21995655 0.07946014 0.15729094 -0.13554657 -0.13716668 -0.36826125 0.2930258 0.14599682 0.22932807 -0.48762015 0.48879316 -0.44503236 0.05455886 0.42495748 -0.10287025 0.36692378 -0.07593989 -0.029117482 -0.03893805 -0.37384024 0.13803077 -0.16343412 0.04434403 -0.3773158 0.61948544 -0.023709025 0.16707091 0.059675373 0.3418703 0.50723076 0.01872051 0.3371231 0.05388204 0.058573052 0.070051596 0.65267605 0.39622453 0.08262994 -0.47528523 0.21472271 0.116587885
听到 -0.13350402 0.33015758 0.072801925 0.0030373386 0.063928045 -0.5208313 0.2292152 0.59234434 -0.1617475 -0.2667092 -0.11021375 -0.42556423 0.08698553 0.080453634 0.12949328 -0.1643875 0.055610947 -0.4196667 -0.14874242 -0.49934426 0.20511349 0.06246787 0.15459597 -0.21672958 -0.21948446 0.18098284 -0.18442066 -0.29433817 -0.111519314 -0.07227069 0.34452704 0.024019917 0.1089286 -0.051914778 -0.08036536 0.22290818 -0.036577303 -0.27198368 -0.21587418 -0.5510359 -0.07112922 -0.13310412 -0.10749621 -0.18041831 0.22427723 -0.092666686 -0.1497462 0.025991926 0.01824547 0.256516 0.21267556 -0.13965589 -0.062981226 -0.05968456 -0.21007171 0.27633286 0.28874415 0.019580806 -0.33664685 0.19361399 0.06618797 0.13480645 -0.11694554 -0.11464448 -0.31235224 0.27235103 0.12739958 0.20919289 -0.4290269 0.4188296 -0.40601268 0.052745376 0.3685153 -0.098710306 0.32700837 -0.069206335 -0.026455777 -0.037508454 -0.3265918 0.117428996 -0.16096345 0.040160723 -0.32826304 0.5501699 -0.02678169 0.14420733 0.062990315 0.2814577 0.44315293 0.00500271 0.2759018 0.040842116 0.042742677 0.06426375 0.5769672 0.33739963 0.06753728 -0.40948588 0.17498566 0.10243655
干 -0.14223704 0.32829443 0.072345234 0.0029797654 0.061225776 -0.5248376 0.22037172 0.60302293 -0.16432114 -0.2813376 -0.113875456 -0.44340187 0.09528723 0.09530999 0.1329743 -0.15489824 0.050719302 -0.42067438 -0.1380532 -0.51737195 0.20150648 0.062051374 0.1484544 -0.21372582 -0.22156763 0.1772809 -0.1917144 -0.29272446 -0.10650443 -0.07609569 0.33289245 0.036904458 0.11413618 -0.05633006 -0.08997473 0.2238764 -0.031215245 -0.27618346 -0.23099913 -0.54651403 -0.07516219 -0.1254261 -0.12688158 -0.17440744 0.22632922 -0.098395996 -0.14083384 0.024136566 0.012655941 0.24904673 0.21610036 -0.14333636 -0.061814666 -0.058581233 -0.19490881 0.27053255 0.2890977 0.011704955 -0.33400062 0.19298562 0.055515237 0.13353778 -0.114368655 -0.10962571 -0.32897577 0.26677766 0.13561906 0.20873195 -0.41292247 0.41360098 -0.3869128 0.04026157 0.37760794 -0.086637326 0.31562135 -0.0705443 -0.020255141 -0.045622714 -0.33250517 0.12363525 -0.16065104 0.041653812 -0.3127415 0.5466399 -0.014305484 0.1555841 0.065097295 0.29551247 0.45492867 0.020877264 0.29245877 0.052830666 0.038917672 0.0732101 0.5892471 0.35605833 0.06359184 -0.4108649 0.18057816 0.114119835
羊 -0.18309698 0.42162958 0.10697816 0.025667798 0.06868051 -0.6451272 0.28781614 0.7451707 -0.2124809 -0.35328194 -0.1510618 -0.53990847 0.124524005 0.1008487 0.16472524 -0.20340915 0.06449621 -0.53723186 -0.17741726 -0.6324564 0.25354907 0.09800446 0.18126866 -0.2625785 -0.2657263 0.23393703 -0.24515608 -0.36460435 -0.14753447 -0.09071261 0.41340727 0.04134593 0.12272224 -0.06438655 -0.120313525 0.2933542 -0.045386143 -0.341272 -0.27131236 -0.696983 -0.09414334 -0.16704147 -0.15335318 -0.23011217 0.2878093 -0.12223581 -0.1712073 0.009512605 0.027925575 0.31035087 0.2596293 -0.18674332 -0.090194486 -0.091949284 -0.2574635 0.3322687 0.3466476 0.013127909 -0.42212114 0.2358213 0.08683299 0.17827216 -0.1413627 -0.14863417 -0.41017815 0.33402166 0.16005449 0.26878062 -0.5182627 0.5262541 -0.48968238 0.07062328 0.46945328 -0.114799894 0.4111616 -0.07438332 -0.043140326 -0.054871056 -0.41019654 0.15406561 -0.1812264 0.029862644 -0.40618873 0.6936154 -0.029940698 0.17064954 0.0783728 0.35764906 0.555665 0.009395109 0.35974526 0.065214545 0.06359475 0.08806787 0.7377996 0.43942788 0.085805096 -0.5033812 0.2172908 0.13022228
儿子 -0.1422816 0.37171867 0.08309706 0.0035347021 0.07118002 -0.5627009 0.23825866 0.65244615 -0.18071574 -0.29232037 -0.13154288 -0.46189755 0.11142587 0.10384691 0.15527292 -0.18440971 0.05577542 -0.46079797 -0.15133545 -0.53872913 0.23234895 0.0799225 0.16978829 -0.21673685 -0.23894538 0.19113338 -0.21083319 -0.3060288 -0.12804706 -0.07105497 0.3684533 0.024429424 0.122594416 -0.058552593 -0.095510505 0.25697428 -0.03197621 -0.28767088 -0.25043452 -0.5826394 -0.09240538 -0.13471872 -0.11998934 -0.18935898 0.23447098 -0.090465315 -0.15400012 0.023846105 0.019388132 0.26456836 0.22881597 -0.16691734 -0.0766015 -0.08508637 -0.2122236 0.28890577 0.30321932 0.026122255 -0.3713944 0.19599335 0.070222795 0.14336768 -0.12989229 -0.115535885 -0.3460803 0.29250026 0.1511666 0.22317997 -0.46175364 0.46340165 -0.4267078 0.05276288 0.40265462 -0.109810844 0.3509174 -0.068887636 -0.025105901 -0.043382864 -0.35209045 0.13935222 -0.17140509 0.032556858 -0.35665235 0.5921545 -0.022770565 0.1582187 0.06512702 0.31526098 0.4875991 0.014208525 0.31649747 0.046244588 0.045045063 0.06332681 0.6166611 0.36552963 0.080887794 -0.4365965 0.19073029 0.10791524
手 -0.16369446 0.38609672 0.082483776 0.019210406 0.072484486 -0.580637 0.24760714 0.67987204 -0.20264833 -0.30275178 -0.14219587 -0.49754164 0.11384805 0.10030375 0.15910372 -0.19173117 0.062297232 -0.49287903 -0.16029407 -0.5778623 0.23229076 0.08075926 0.17030996 -0.23679017 -0.25301751 0.20164295 -0.2257761 -0.33902332 -0.13871515 -0.07980611 0.39164683 0.031905357 0.11260222 -0.06869672 -0.099088974 0.2585702 -0.037607558 -0.30780613 -0.24679025 -0.6312069 -0.09481712 -0.14143783 -0.13815685 -0.1964273 0.25491756 -0.09457824 -0.1553257 0.019950286 0.025779909 0.28490472 0.2445292 -0.16834144 -0.069737285 -0.072387695 -0.22007246 0.30345806 0.31776643 0.028732857 -0.396538 0.21398507 0.06413405 0.16259713 -0.14707537 -0.12853457 -0.35396606 0.2989855 0.14506045 0.22937723 -0.47659498 0.47143653 -0.44585383 0.054136395 0.43105143 -0.11083796 0.35766762 -0.075361446 -0.030936813 -0.04479053 -0.3626026 0.14003746 -0.17893027 0.03832251 -0.3713584 0.6123634 -0.03163502 0.1625417 0.06843779 0.3342428 0.51975775 0.02115762 0.3326157 0.053026374 0.047978826 0.08246568 0.6597236 0.3985087 0.082012825 -0.4573332 0.21210107 0.116615616
家里 -0.13570657 0.32010424 0.079380795 0.0013133805 0.05942546 -0.48781708 0.21277274 0.5645814 -0.1728137 -0.25283223 -0.12501764 -0.4224881 0.09527006 0.07617899 0.12593839 -0.15929966 0.046696533 -0.41137582 -0.13451663 -0.4821309 0.20277672 0.06517636 0.15044753 -0.20598185 -0.20442857 0.17190729 -0.180068 -0.28437108 -0.11123977 -0.06873835 0.31757236 0.038031228 0.103457004 -0.05090896 -0.093159676 0.22506963 -0.038609196 -0.25729713 -0.21907282 -0.5296868 -0.070021085 -0.12870094 -0.107336685 -0.16396393 0.20751305 -0.089915305 -0.1373508 0.0049077324 0.008904125 0.23732334 0.20564212 -0.1377774 -0.0679225 -0.061745223 -0.19050682 0.24264602 0.27446195 0.0270777 -0.33387566 0.17895219 0.06644483 0.12925988 -0.11482557 -0.11505822 -0.29745203 0.2597162 0.13174194 0.19283785 -0.4025441 0.39639837 -0.38883147 0.056394957 0.35189933 -0.09205112 0.31244406 -0.06737652 -0.020661162 -0.04125422 -0.3140633 0.12407223 -0.14837573 0.025365368 -0.31359982 0.5143907 -0.024277583 0.1335015 0.06666829 0.2871672 0.42765865 0.01065634 0.2662636 0.051656276 0.039791252 0.066210344 0.5629414 0.3357392 0.06862107 -0.38306668 0.18107036 0.09866889
地上 -0.15985243 0.39242142 0.099791266 0.013890371 0.06899853 -0.6004947 0.24865714 0.67937505 -0.20264424 -0.31401056 -0.14250498 -0.49968633 0.117782176 0.112557456 0.16258126 -0.1867616 0.055588044 -0.48586088 -0.17095515 -0.59120834 0.24804859 0.071825854 0.176649 -0.24055947 -0.25939792 0.2123696 -0.22653347 -0.32655483 -0.13785 -0.085615456 0.39165488 0.039317448 0.12577945 -0.06033505 -0.10733313 0.25877687 -0.03438978 -0.29887027 -0.261612 -0.63180864 -0.08665517 -0.1453592 -0.13947624 -0.20648126 0.2549443 -0.10406147 -0.15683277 0.024521817 0.014116041 0.29370466 0.24054138 -0.16967459 -0.08371397 -0.08555391 -0.22330514 0.30868363 0.31411636 0.024855195 -0.39968625 0.20794599 0.07563206 0.16079274 -0.13664861 -0.12461929 -0.35979086 0.298698 0.15831082 0.2427927 -0.4816925 0.49189174 -0.46389166 0.05476157 0.42752856 -0.104588665 0.36718777 -0.061770566 -0.036185548 -0.050430745 -0.37954876 0.1392367 -0.16443686 0.031346798 -0.37486482 0.6348091 -0.03367017 0.16821678 0.07392512 0.32551557 0.514609 0.011745865 0.33563137 0.047632996 0.047149498 0.08391408 0.6614055 0.40469885 0.07597247 -0.46052787 0.2050032 0.117649436
一声 -0.1542617 0.36662358 0.08846966 0.011562167 0.056551237 -0.5728235 0.24370682 0.6636723 -0.18315375 -0.3019807 -0.13878007 -0.474341 0.09690347 0.09986912 0.15200342 -0.18299629 0.051803883 -0.4758024 -0.16928738 -0.5506024 0.23409367 0.07735281 0.17711265 -0.23620662 -0.24251473 0.2044587 -0.21996059 -0.32950523 -0.11878827 -0.07701913 0.3626403 0.040153027 0.110052675 -0.06409233 -0.09706391 0.24894856 -0.04285502 -0.2989613 -0.25481626 -0.60093915 -0.08870354 -0.14608529 -0.1251195 -0.19544935 0.25615495 -0.09347397 -0.1561003 0.017667718 0.022863347 0.28190026 0.24315803 -0.16244335 -0.07364574 -0.07944193 -0.2226425 0.28667775 0.30604702 0.012069063 -0.3753325 0.2099409 0.07245483 0.14846419 -0.1258036 -0.13486874 -0.3405922 0.2919992 0.15210976 0.23512147 -0.46296993 0.46512794 -0.4364663 0.045276485 0.40599227 -0.1102057 0.34173554 -0.06354842 -0.024593208 -0.041407045 -0.34786755 0.13674444 -0.16821912 0.040803183 -0.3619502 0.5939202 -0.01802935 0.15302603 0.075279504 0.32442248 0.4853761 0.02221958 0.3222636 0.042842135 0.042162217 0.060809962 0.6421274 0.3861607 0.07841838 -0.4475128 0.19069612 0.11487596
眼泪 -0.13042365 0.31891623 0.07107842 0.013508312 0.047401454 -0.5149001 0.22567227 0.59246093 -0.17773062 -0.25912988 -0.10823969 -0.4215225 0.08881099 0.0965172 0.1236858 -0.16643672 0.052119497 -0.42545506 -0.15572049 -0.49281782 0.21444023 0.06303162 0.14415336 -0.19802289 -0.21464542 0.17417353 -0.18134095 -0.28802627 -0.10812965 -0.060586784 0.338931 0.038028505 0.11160463 -0.063426316 -0.0850299 0.22406876 -0.029436659 -0.25223455 -0.21172257 -0.54715115 -0.064420454 -0.12977189 -0.1117136 -0.1664705 0.21309993 -0.09078276 -0.13628569 0.025280425 0.02387367 0.24138921 0.19798343 -0.1465418 -0.05443829 -0.07865107 -0.18521243 0.2613084 0.2743176 0.030995993 -0.32361078 0.19360764 0.06958839 0.12317827 -0.110983655 -0.12373057 -0.32031968 0.2505673 0.13493875 0.21257351 -0.41959795 0.40838674 -0.3927438 0.043920368 0.36281115 -0.08987245 0.31741312 -0.06370816 -0.030569421 -0.036294594 -0.319647 0.12894215 -0.13876633 0.04092722 -0.32237932 0.5282408 -0.031697597 0.1356351 0.061791893 0.27815068 0.44176537 0.021307886 0.2847853 0.04579918 0.05598891 0.06982227 0.5662664 0.3312233 0.06898599 -0.3907416 0.18549013 0.10278005
脸 -0.137381 0.35774636 0.091283344 0.006568465 0.06544635 -0.54433584 0.22684796 0.6350066 -0.19198218 -0.29612997 -0.124877684 -0.44953138 0.09858386 0.10083442 0.14799765 -0.17057742 0.047204092 -0.44275275 -0.1631396 -0.5387858 0.22630475 0.06581432 0.1653615 -0.2224043 -0.23228623 0.18807064 -0.20982277 -0.3106725 -0.111641 -0.06393252 0.3439759 0.02417601 0.11516304 -0.06627546 -0.0886747 0.24881607 -0.04264589 -0.27292794 -0.22608186 -0.5794406 -0.07873283 -0.14510691 -0.11493634 -0.1778414 0.2406067 -0.10623997 -0.14256091 0.0147132175 0.019418035 0.26878142 0.22607926 -0.14931759 -0.07389694 -0.06717134 -0.21583365 0.28115746 0.3033879 0.025966201 -0.35222107 0.19553782 0.070016615 0.15235442 -0.13066077 -0.11615538 -0.3461891 0.28905046 0.14765656 0.22598186 -0.43997663 0.44856292 -0.42251194 0.045603827 0.38912955 -0.10214964 0.33478183 -0.07288298 -0.03576609 -0.028405212 -0.33162308 0.13862804 -0.1654978 0.035170857 -0.34813413 0.58212465 -0.024024248 0.15978123 0.057049908 0.3038104 0.47705182 0.016745526 0.29653123 0.040448748 0.051437728 0.05916047 0.6177599 0.3705263 0.07192178 -0.43554002 0.1831342 0.113300204
越 -0.12380775 0.32252997 0.06740585 0.026865317 0.039265156 -0.487568 0.22463453 0.5750369 -0.17942628 -0.25193202 -0.13044827 -0.42724994 0.10728053 0.07385334 0.11840337 -0.16424172 0.052705124 -0.4071129 -0.14968495 -0.49637285 0.21572565 0.08318446 0.15966941 -0.19802111 -0.20656462 0.18035287 -0.18411545 -0.27511495 -0.108093925 -0.060864102 0.31818655 0.019930977 0.1127167 -0.061323993 -0.084454566 0.21943972 -0.03803125 -0.26486254 -0.2105852 -0.5349618 -0.08302582 -0.1318517 -0.10586157 -0.1612398 0.21366149 -0.07438353 -0.1491938 0.0077429055 0.01162569 0.22978349 0.21464014 -0.15607344 -0.07350864 -0.08054229 -0.18314089 0.25316015 0.27028945 0.008860306 -0.32860667 0.1819065 0.056480885 0.12361123 -0.12810321 -0.1095975 -0.3196034 0.25712022 0.12725262 0.21402183 -0.4057539 0.41267666 -0.39659384 0.0388683 0.36553755 -0.09134081 0.29947075 -0.062226564 -0.013103087 -0.047573246 -0.31552783 0.12188675 -0.1469289 0.0424189 -0.3128323 0.5155352 -0.034666352 0.12495605 0.04636712 0.26843315 0.4240724 0.010046754 0.2752808 0.037363417 0.048787102 0.06652607 0.5710498 0.3244239 0.07819678 -0.3794978 0.17137346 0.09164904
做 -0.14351763 0.33278835 0.08896556 0.022261294 0.067794345 -0.53169787 0.23205315 0.608061 -0.16876382 -0.2863022 -0.12303134 -0.44745174 0.08706275 0.09171717 0.14802468 -0.16023913 0.04307766 -0.4256898 -0.15287693 -0.50175864 0.20177375 0.08035506 0.1436558 -0.2168947 -0.22311266 0.18688542 -0.20406342 -0.2961309 -0.117097735 -0.07305373 0.34621605 0.0329459 0.11434985 -0.04714416 -0.097664416 0.2373869 -0.025896814 -0.26291212 -0.21980138 -0.558666 -0.07277972 -0.13216019 -0.1167465 -0.18322451 0.2286916 -0.086498424 -0.1524939 0.025217813 0.023835689 0.25145015 0.21137626 -0.14772731 -0.05946499 -0.06411759 -0.21145195 0.28075525 0.2835102 0.010956666 -0.3355765 0.19503233 0.06756999 0.14786823 -0.12950987 -0.12283818 -0.32499123 0.26478893 0.13611689 0.21090965 -0.43482885 0.42594495 -0.3992259 0.048853226 0.38098922 -0.094717845 0.33082646 -0.06326421 -0.018971415 -0.036748715 -0.32490984 0.12242043 -0.14817743 0.036872722 -0.3247691 0.5621253 -0.030675834 0.15700333 0.06101149 0.2922701 0.45021337 0.0018004426 0.28868786 0.049630366 0.053752337 0.074025616 0.5782455 0.35972837 0.064887784 -0.40813655 0.19261356 0.10749659
都是 -0.15876201 0.356824 0.08982862 0.012843142 0.05213419 -0.55824673 0.24539448 0.652851 -0.18361539 -0.2944183 -0.1425949 -0.46626073 0.10856993 0.08795151 0.14442632 -0.17826094 0.053918026 -0.46220082 -0.16576104 -0.5512535 0.23150231 0.076761395 0.16442207 -0.22280891 -0.24406743 0.19346233 -0.19979727 -0.326523 -0.12626827 -0.07154703 0.3567416 0.03426741 0.12404484 -0.060510494 -0.08981734 0.2503067 -0.039956365 -0.2922251 -0.24242747 -0.5889611 -0.07495579 -0.13691102 -0.13187239 -0.19802414 0.24958651 -0.096607424 -0.14816466 0.01782601 0.030722998 0.26149362 0.24049896 -0.16882263 -0.07199811 -0.0678878 -0.2283893 0.29542542 0.29746252 0.014129606 -0.3683429 0.20701763 0.06560854 0.15824358 -0.13971344 -0.12549293 -0.33789095 0.29094326 0.14064759 0.23061004 -0.46278286 0.45702642 -0.4299489 0.060934775 0.4118087 -0.110287815 0.356843 -0.07160313 -0.021259537 -0.0467807 -0.36031532 0.13535824 -0.1746964 0.03188921 -0.3502559 0.59358245 -0.03614355 0.15077989 0.056585222 0.3150765 0.49312547 0.013623305 0.32292107 0.045724865 0.06000388 0.07562399 0.6402402 0.37582636 0.07901593 -0.44127145 0.18702355 0.12753126
不知道 -0.114593394 0.27808607 0.06746003 0.012624039 0.044688974 -0.42604664 0.18229416 0.48270363 -0.14863177 -0.22474977 -0.100225784 -0.35581946 0.08064013 0.073747426 0.112938344 -0.13888536 0.03476491 -0.3373277 -0.11080242 -0.4030121 0.17382905 0.050511982 0.13079356 -0.17396769 -0.18549626 0.15837547 -0.15758817 -0.243811 -0.09512908 -0.0476692 0.26800278 0.029515255 0.08594626 -0.039906934 -0.07132705 0.17608939 -0.02879666 -0.20627627 -0.17805907 -0.4472705 -0.05450328 -0.098523945 -0.08591145 -0.14154409 0.17141548 -0.07792528 -0.10825932 0.007311207 0.026330696 0.19040129 0.16197841 -0.12285577 -0.046267077 -0.063159026 -0.15330191 0.20515051 0.22915818 0.018605158 -0.2747141 0.16185537 0.05542336 0.11148826 -0.09212918 -0.086664975 -0.253681 0.22257152 0.10817469 0.160039 -0.34354308 0.33693138 -0.32728863 0.0386715 0.3079827 -0.08374567 0.2630476 -0.04388135 -0.02277999 -0.027866779 -0.25439152 0.09433662 -0.11906134 0.035558034 -0.262533 0.43245143 -0.027812557 0.10720988 0.052198198 0.24016304 0.36875254 0.009257241 0.23240298 0.040767804 0.028212428 0.041350663 0.47262436 0.26956806 0.055232514 -0.33248872 0.15209141 0.0847735
衣服 -0.1506441 0.38931352 0.08905271 0.010439917 0.069117464 -0.60476273 0.26802266 0.70004976 -0.194839 -0.32526582 -0.14666359 -0.50448155 0.10999198 0.09661871 0.16577543 -0.18416263 0.054977518 -0.48895591 -0.16511329 -0.584345 0.25038475 0.079660684 0.16763473 -0.23979902 -0.26528552 0.22534919 -0.23226084 -0.33974597 -0.13583145 -0.07293762 0.3955541 0.0256684 0.116838515 -0.06252311 -0.10070279 0.2730421 -0.037218012 -0.3097108 -0.2672525 -0.6306053 -0.09671936 -0.14905871 -0.13808085 -0.21087727 0.2666413 -0.104944535 -0.17401545 0.008646189 0.023989813 0.27986562 0.25073427 -0.16590567 -0.071778946 -0.08652095 -0.22614165 0.29981607 0.33302814 0.02104797 -0.39658988 0.22283101 0.06978895 0.15591796 -0.14216419 -0.14157727 -0.37035638 0.30241483 0.16355631 0.23277307 -0.49458706 0.4777628 -0.4722701 0.054423314 0.42218187 -0.11759504 0.3739509 -0.07198835 -0.028421195 -0.031862594 -0.3858159 0.15279944 -0.18591683 0.044787753 -0.36421016 0.64194226 -0.035696853 0.17159995 0.061995022 0.3363461 0.5136748 0.004257545 0.33824694 0.058149595 0.049778588 0.065947376 0.67591447 0.39715168 0.075373076 -0.47728685 0.20702621 0.1365903
掉 -0.15429163 0.36531702 0.09476727 0.006236022 0.05957848 -0.55477864 0.24220854 0.63476723 -0.18674062 -0.30289236 -0.12250794 -0.47439447 0.09215835 0.097240664 0.14780569 -0.17674907 0.054865662 -0.45060012 -0.15435112 -0.53151417 0.21983045 0.06748265 0.15357742 -0.21166983 -0.23231436 0.1924759 -0.19782114 -0.30108094 -0.1121739 -0.07725015 0.35219604 0.030133843 0.105847314 -0.05308191 -0.08995542 0.23800713 -0.025469216 -0.29247475 -0.22831054 -0.5886946 -0.07967999 -0.14609338 -0.12079836 -0.17854875 0.23725216 -0.10350089 -0.15871264 0.023106972 0.026441911 0.27291453 0.22111623 -0.16679348 -0.061438452 -0.079106614 -0.20960686 0.2940686 0.29397774 0.024432536 -0.36769938 0.19498411 0.061096117 0.1465218 -0.13686556 -0.12519577 -0.34324273 0.29017055 0.14543165 0.22878826 -0.4444558 0.44371217 -0.42960507 0.06296206 0.40456083 -0.11209287 0.3456314 -0.056932162 -0.018166002 -0.04578863 -0.34670886 0.13507986 -0.15848507 0.032731604 -0.34790605 0.5899528 -0.01641696 0.15381859 0.056712158 0.30598128 0.47175992 0.018775448 0.30657127 0.04659558 0.04055019 0.06552505 0.62316084 0.37420642 0.08144386 -0.43656185 0.20233406 0.11751722
牛 -0.13909025 0.3481948 0.07679825 0.021006342 0.069802485 -0.5245808 0.23225813 0.6125347 -0.1775522 -0.28756735 -0.122813694 -0.44423065 0.08908651 0.09446858 0.14439024 -0.17633592 0.05371326 -0.42518935 -0.15863205 -0.51310265 0.20443279 0.06302479 0.1587083 -0.22227468 -0.22761482 0.18095031 -0.20473185 -0.30707574 -0.11708385 -0.06621903 0.33574274 0.022155277 0.103349194 -0.057773396 -0.09861819 0.22995824 -0.028474351 -0.26862353 -0.22068456 -0.55558366 -0.07950185 -0.13179916 -0.10847858 -0.17663956 0.23111932 -0.09279225 -0.15364137 0.022213774 0.026427558 0.25490975 0.22712487 -0.15348987 -0.06316175 -0.07819454 -0.21678978 0.2763199 0.29080126 0.024358734 -0.3586016 0.19689667 0.06705041 0.14685617 -0.12438264 -0.11261 -0.31726235 0.26079285 0.12735538 0.22011875 -0.42970705 0.41864204 -0.41003612 0.052093353 0.3881484 -0.10031508 0.32590115 -0.070843555 -0.036190897 -0.034748096 -0.33147845 0.11958245 -0.15428121 0.023981445 -0.33210057 0.5618319 -0.023385996 0.15618221 0.06827309 0.29633552 0.46386656 0.019470975 0.30176923 0.056901153 0.05187655 0.070893586 0.59902716 0.35211664 0.0687249 -0.40532887 0.18696861 0.104813196
话 -0.12971845 0.30547827 0.08493276 0.015247217 0.058570836 -0.4713118 0.21543033 0.5472228 -0.16649012 -0.25660408 -0.11676154 -0.41263598 0.08827278 0.07423167 0.13521798 -0.15646769 0.04004881 -0.40111613 -0.13977271 -0.47968012 0.19449717 0.07068391 0.13607207 -0.18383907 -0.20635396 0.16452378 -0.18018572 -0.2733489 -0.1130362 -0.0697394 0.30732933 0.025740784 0.103006974 -0.05766237 -0.088119954 0.21556664 -0.031009633 -0.2438326 -0.20841677 -0.5026803 -0.061546154 -0.13144223 -0.10404854 -0.15610547 0.20603913 -0.07801758 -0.1366953 0.010483425 0.01078772 0.24005245 0.18793505 -0.13866167 -0.059815828 -0.068661794 -0.17682448 0.23991409 0.25100023 0.027296672 -0.32459912 0.18431567 0.054319117 0.13347466 -0.11187842 -0.11201918 -0.3030944 0.23830117 0.1326532 0.2000288 -0.3911958 0.39550266 -0.36433294 0.050054435 0.34685215 -0.100458704 0.30475843 -0.06445849 -0.029042248 -0.03222504 -0.29465443 0.106992915 -0.13980275 0.035929214 -0.30704656 0.5147168 -0.026948629 0.14399 0.048727382 0.2759406 0.42475682 0.0018482564 0.26675087 0.034165762 0.05251819 0.06948959 0.5308856 0.32068363 0.06604582 -0.38544396 0.16892801 0.09102773
女人 -0.12601207 0.3048208 0.08298934 0.018747281 0.0518332 -0.4851621 0.19901423 0.5596853 -0.15830316 -0.24611832 -0.1101658 -0.4086092 0.09236204 0.09257426 0.13494316 -0.14574088 0.03770468 -0.40278164 -0.12956901 -0.47992092 0.19925977 0.07323265 0.1365394 -0.18590665 -0.21394697 0.17931886 -0.17308639 -0.2677685 -0.11547762 -0.05228577 0.32160148 0.025812445 0.102872446 -0.04439208 -0.085494 0.21928914 -0.033385687 -0.25016358 -0.20943436 -0.51499677 -0.072391294 -0.13107103 -0.10425441 -0.1528205 0.2143882 -0.078412175 -0.1368882 0.020883258 0.012445569 0.22686227 0.20764932 -0.1290146 -0.06534081 -0.06957876 -0.18136206 0.25210488 0.26656798 0.009945529 -0.31970593 0.17444511 0.058034908 0.1313873 -0.11939297 -0.103825144 -0.30017242 0.2553908 0.12498661 0.20452058 -0.39318225 0.39725104 -0.3780808 0.03656521 0.34628952 -0.092495814 0.3085659 -0.051800556 -0.031166527 -0.025564699 -0.30103526 0.10736138 -0.1357398 0.027641883 -0.30975637 0.5173769 -0.01407172 0.1438331 0.05685298 0.27908334 0.4234033 0.004250746 0.2774517 0.038372014 0.033818044 0.06827595 0.5350007 0.33037063 0.05974642 -0.3696363 0.16317597 0.105571605
那天 -0.10327841 0.2780205 0.06406399 0.0050459276 0.037920427 -0.41675794 0.19053912 0.4809808 -0.13449985 -0.21669985 -0.10798967 -0.35182816 0.07069864 0.067962766 0.11131529 -0.14184791 0.03674682 -0.35361305 -0.1266939 -0.42013934 0.1806314 0.06520575 0.12261106 -0.17179295 -0.17392747 0.15276124 -0.16613644 -0.24504253 -0.09161524 -0.045454443 0.27702433 0.033978388 0.093357556 -0.043784298 -0.06458851 0.19612165 -0.017240867 -0.20730819 -0.1906978 -0.4427396 -0.07056851 -0.11489689 -0.10313193 -0.13949834 0.18293294 -0.08118686 -0.10890417 0.021116165 0.021068662 0.21198115 0.16844916 -0.12514414 -0.04859486 -0.058903605 -0.17201255 0.22232577 0.2249867 0.009832639 -0.2756747 0.16031826 0.057663016 0.11267735 -0.08985744 -0.092273906 -0.25322852 0.21544965 0.11347201 0.17608628 -0.35285518 0.34813207 -0.32317933 0.046197608 0.3023115 -0.081022575 0.25492013 -0.052758176 -0.025146985 -0.03360219 -0.26291054 0.11067813 -0.11892924 0.018516948 -0.27092913 0.4417693 -0.014312887 0.108177975 0.055190567 0.24012484 0.36305413 0.019105744 0.2424833 0.037603207 0.043970782 0.04240852 0.46455237 0.2791177 0.06886143 -0.3284051 0.15370262 0.08116368
住 -0.12688236 0.3186233 0.07516363 0.008557881 0.060703676 -0.49903288 0.21941039 0.57080424 -0.16624518 -0.26424628 -0.12230921 -0.41840714 0.08591242 0.08740722 0.123109594 -0.15829992 0.03925108 -0.40719703 -0.14064126 -0.48993903 0.20126191 0.07658548 0.14714447 -0.19408663 -0.21353474 0.17480789 -0.1785189 -0.2743637 -0.099583276 -0.063651584 0.326769 0.0332549 0.10269224 -0.04458303 -0.091000885 0.21467547 -0.022386625 -0.24323262 -0.20699808 -0.52420735 -0.06487355 -0.12170304 -0.11035579 -0.1566732 0.21715724 -0.08374751 -0.13256195 0.0063227103 0.015142463 0.23794812 0.19487979 -0.13049603 -0.053808063 -0.07535189 -0.19789645 0.2467307 0.26471224 0.0169009 -0.3253082 0.176276 0.06378997 0.14142774 -0.11970946 -0.119363904 -0.29875946 0.2434597 0.1354113 0.20059204 -0.40857705 0.38918936 -0.38617077 0.04911331 0.35523543 -0.088913895 0.30288097 -0.056808602 -0.022826938 -0.03511828 -0.31555942 0.11816224 -0.14032324 0.028232334 -0.30769077 0.5148466 -0.013777958 0.13423783 0.066988766 0.27118063 0.41579565 0.004538714 0.2669147 0.04493694 0.050769914 0.06325869 0.5594267 0.32925665 0.075621694 -0.38605827 0.16997124 0.10937945
头 -0.13749382 0.34649995 0.07377394 0.0034215602 0.058148753 -0.52180755 0.22316603 0.59928244 -0.17841265 -0.28447905 -0.11266593 -0.44135317 0.09293699 0.08868901 0.13532639 -0.17580937 0.049299985 -0.42868185 -0.13913734 -0.51800287 0.20485908 0.06838047 0.15494667 -0.2146004 -0.22858429 0.1786561 -0.18663833 -0.30215383 -0.11774447 -0.06518229 0.33984855 0.018882299 0.11502122 -0.057765137 -0.09018064 0.22207995 -0.039313782 -0.2644276 -0.21964335 -0.54713446 -0.07041324 -0.14110166 -0.117823 -0.17997102 0.22398296 -0.087518014 -0.14113808 0.008213647 0.02398176 0.25759545 0.20764051 -0.14334045 -0.06928798 -0.06047485 -0.20001374 0.2714527 0.2810783 0.009678617 -0.33442578 0.1879934 0.070814624 0.14268343 -0.13011125 -0.11801303 -0.31738454 0.26352295 0.1475302 0.20431818 -0.4323898 0.42625293 -0.40411288 0.042676646 0.3758189 -0.09169958 0.31578302 -0.06616687 -0.035535358 -0.033666108 -0.33028272 0.13482921 -0.15418679 0.034265455 -0.327319 0.5575394 -0.023587408 0.13749465 0.052509822 0.29269996 0.46031424 0.015930828 0.28254673 0.03827045 0.0362006 0.0676208 0.5735357 0.35079968 0.07496532 -0.41139463 0.171592 0.1163933
干活 -0.12749533 0.29679018 0.06678509 0.02087566 0.054757133 -0.48024607 0.20475684 0.5492285 -0.16707541 -0.25788635 -0.11103564 -0.4070777 0.088415354 0.08395964 0.131874 -0.14968304 0.047973108 -0.38313642 -0.13896462 -0.45563382 0.19110088 0.062923 0.12658145 -0.1896792 -0.19405375 0.17170359 -0.1839075 -0.26990685 -0.11104477 -0.05281913 0.3008936 0.03302252 0.09080443 -0.058039658 -0.09125241 0.21352139 -0.038094386 -0.24957395 -0.21083178 -0.5059226 -0.07412536 -0.11873934 -0.098694906 -0.16122177 0.1998443 -0.08209467 -0.12263608 0.009509191 0.014278257 0.23312409 0.20082717 -0.14061412 -0.050481196 -0.07242186 -0.19199707 0.23904848 0.25819698 0.01757148 -0.30894533 0.18039533 0.061479244 0.12206913 -0.117271714 -0.11524974 -0.29247388 0.25290433 0.11634984 0.19512448 -0.3811429 0.37991115 -0.3714776 0.03983133 0.33425647 -0.09581168 0.29846373 -0.06520067 -0.027372304 -0.028222281 -0.295826 0.10645539 -0.1445999 0.033132743 -0.29326534 0.49702826 -0.020909265 0.13518704 0.056131884 0.26336265 0.41655913 0.0040906467 0.2695453 0.03159186 0.041621584 0.06518134 0.526343 0.32277438 0.07186488 -0.3794914 0.16662487 0.09457595
说话 -0.12242803 0.27339673 0.07370198 0.01811332 0.041887484 -0.4260644 0.17693874 0.48955736 -0.13818721 -0.23456013 -0.096907236 -0.365119 0.07856404 0.0780221 0.105709136 -0.13430442 0.039164606 -0.35686198 -0.12179399 -0.41132942 0.16205545 0.051658526 0.122643806 -0.16081578 -0.17893143 0.16288547 -0.16513771 -0.2296635 -0.09841258 -0.060158566 0.26844713 0.026051864 0.0842627 -0.0374205 -0.07441896 0.19193204 -0.01967673 -0.22799124 -0.18430234 -0.45396948 -0.07086453 -0.10547896 -0.09289986 -0.14641897 0.18213765 -0.08268688 -0.11891576 0.015451257 0.024871066 0.21106133 0.17112519 -0.1158833 -0.055250995 -0.06081287 -0.16901262 0.21285415 0.23382819 0.0076370686 -0.28674716 0.14997421 0.058224402 0.11536956 -0.09339502 -0.08634826 -0.26826218 0.2121569 0.11898554 0.175782 -0.34079954 0.3539148 -0.316979 0.03777168 0.30468938 -0.0738486 0.2703875 -0.039838545 -0.030244505 -0.034145545 -0.25940442 0.103643864 -0.12543403 0.03416599 -0.25674605 0.4407503 -0.021584915 0.11028912 0.055440363 0.2415841 0.36522618 0.012992772 0.24275562 0.04601368 0.044101834 0.055343464 0.47650075 0.29131716 0.060648207 -0.33476484 0.13902344 0.09247369
活 -0.1185935 0.27021652 0.05705018 0.00723477 0.045198306 -0.40662834 0.1658953 0.4706788 -0.14199255 -0.22417754 -0.09047595 -0.3409714 0.08165265 0.06110992 0.10707608 -0.12948774 0.04528298 -0.34301668 -0.10745394 -0.4055705 0.15482701 0.055022653 0.11426462 -0.16511306 -0.17892902 0.15025187 -0.15976638 -0.22675832 -0.08451493 -0.052244563 0.26152906 0.03220563 0.07300592 -0.052477237 -0.065373175 0.18922304 -0.033285506 -0.21824116 -0.17478234 -0.43745062 -0.056388117 -0.093345836 -0.09759941 -0.14661874 0.18455325 -0.073447205 -0.11420849 0.010294003 0.00699126 0.18893085 0.16197805 -0.11311105 -0.049811263 -0.044633586 -0.15011764 0.20631735 0.20898063 0.017708577 -0.27294552 0.1572402 0.05291454 0.10664372 -0.087165594 -0.094060645 -0.25330976 0.20772287 0.11480976 0.1693211 -0.32708165 0.3329464 -0.31323022 0.04863052 0.28344053 -0.078639686 0.24443217 -0.03868249 -0.024813512 -0.031164125 -0.24523078 0.08683591 -0.12440234 0.028705813 -0.2574458 0.4349924 -0.016489143 0.108270355 0.05211638 0.23621361 0.35293022 0.017880464 0.21792045 0.03266458 0.047436513 0.05590077 0.45562527 0.26743242 0.061809167 -0.31674308 0.14969757 0.08564146
成 -0.11697697 0.29739746 0.065449595 0.009672044 0.054981466 -0.46894288 0.20887408 0.5312791 -0.16595933 -0.23976472 -0.103666246 -0.39718592 0.08213225 0.077234834 0.12283009 -0.13990545 0.0464452 -0.38624525 -0.13526647 -0.46163058 0.18070258 0.07148898 0.12666991 -0.19050887 -0.20672184 0.1775031 -0.16768971 -0.26455724 -0.0989555 -0.06095795 0.3138288 0.022922527 0.10007844 -0.05330722 -0.070710324 0.2193965 -0.021732498 -0.24230605 -0.20237753 -0.50371563 -0.059402514 -0.1284971 -0.11149859 -0.1523884 0.20042153 -0.07419173 -0.13619202 0.024960468 0.021435743 0.21681574 0.1967838 -0.13633071 -0.05158376 -0.055369664 -0.19109435 0.24897903 0.25869885 0.023725573 -0.3160727 0.16426045 0.047524832 0.13118982 -0.11439457 -0.10022151 -0.2837614 0.24706362 0.12599257 0.1873859 -0.37986258 0.38405707 -0.36882183 0.03826872 0.33467656 -0.08262545 0.2888307 -0.06436221 -0.023839688 -0.024760693 -0.28707385 0.11627148 -0.14297985 0.026020652 -0.29301086 0.4885327 -0.029947005 0.13068993 0.0551229 0.26886252 0.40918416 0.020682586 0.25260395 0.050986335 0.039006196 0.058671176 0.5209095 0.30817696 0.064066894 -0.37674743 0.17320128 0.10401854
声音 -0.12930617 0.3092183 0.08378204 0.0055185053 0.056822855 -0.47300893 0.20930953 0.54262906 -0.1672165 -0.2449415 -0.112339884 -0.4070447 0.08862995 0.07537055 0.13139015 -0.15672866 0.044947393 -0.38977233 -0.13876303 -0.46819392 0.19918767 0.066189036 0.12787972 -0.18911874 -0.21172838 0.16798715 -0.17062412 -0.26215288 -0.11143954 -0.0594298 0.3141256 0.019736128 0.092146166 -0.053599373 -0.09177689 0.21147013 -0.022210306 -0.24220538 -0.20086204 -0.5025286 -0.070078485 -0.12797777 -0.10596081 -0.15350635 0.21003799 -0.084610455 -0.12145848 0.018699763 0.010500264 0.23630388 0.20613359 -0.14194077 -0.052222688 -0.07148121 -0.18619463 0.25028324 0.2502224 0.009075415 -0.32069454 0.16321397 0.050558873 0.13621616 -0.107113935 -0.11464554 -0.28301275 0.24969429 0.13230385 0.20221911 -0.39564413 0.38298437 -0.36171937 0.04909833 0.34386802 -0.0978189 0.29849344 -0.04590897 -0.035573855 -0.024659436 -0.2929866 0.1102015 -0.14277904 0.020108117 -0.3018063 0.50591785 -0.023277206 0.14349635 0.046513285 0.2588084 0.4179408 0.02047649 0.26669678 0.048976865 0.048707083 0.053262554 0.53940403 0.30980358 0.062518805 -0.37968484 0.17176016 0.096467435
医生 -0.116252646 0.28562948 0.06822297 0.0024740878 0.04319512 -0.4439614 0.19109182 0.51033264 -0.1503742 -0.23147684 -0.10863102 -0.3604253 0.08048187 0.06914252 0.11278826 -0.13188864 0.04162877 -0.36670232 -0.13245182 -0.4384209 0.1764695 0.06847105 0.12218116 -0.17403547 -0.18837227 0.16115178 -0.17130546 -0.24066181 -0.09973501 -0.050780743 0.2761268 0.030319698 0.08160089 -0.0507705 -0.07866868 0.19252996 -0.027761247 -0.22796327 -0.18560186 -0.4696996 -0.067896545 -0.12057779 -0.09019504 -0.14385536 0.20057565 -0.07241671 -0.12573321 0.023029046 0.010516044 0.21602856 0.17726348 -0.12483284 -0.05064068 -0.062859416 -0.17764011 0.22531952 0.24039401 0.022917524 -0.29763165 0.16558526 0.049443476 0.10999365 -0.10867911 -0.09686234 -0.26401532 0.2335832 0.12571704 0.18620624 -0.3630321 0.3562581 -0.32915315 0.048210606 0.32237133 -0.07628773 0.27422327 -0.048212606 -0.030690297 -0.023299258 -0.2668402 0.09930595 -0.12851694 0.036132712 -0.27006996 0.4722695 -0.011902106 0.11993192 0.06028692 0.25473335 0.37938514 0.011217493 0.2554067 0.045207955 0.03166253 0.05098034 0.48908418 0.2970667 0.06259012 -0.3566969 0.15680708 0.10321637
煮 -0.12988651 0.32609618 0.08026719 0.020388765 0.06437422 -0.49215493 0.21191104 0.5761323 -0.1752229 -0.25323185 -0.11992852 -0.4046862 0.08098576 0.081309274 0.14003907 -0.16244812 0.04647096 -0.40200782 -0.12970348 -0.4889389 0.1936303 0.07934579 0.13317439 -0.19806488 -0.20685454 0.17006189 -0.18957604 -0.29026785 -0.108215556 -0.056143828 0.3138323 0.025258118 0.11170486 -0.057059202 -0.08219159 0.22704542 -0.03483004 -0.26226652 -0.204836 -0.52787036 -0.06288945 -0.12930354 -0.10714067 -0.16271187 0.21457969 -0.08397091 -0.14301994 0.02630274 0.018725464 0.23412594 0.20977585 -0.12841555 -0.06832026 -0.066496216 -0.19056362 0.2531776 0.2692522 0.028371982 -0.32001656 0.17391074 0.056814224 0.1440952 -0.11628524 -0.12113246 -0.30577773 0.245001 0.13157062 0.20080447 -0.40659404 0.39566237 -0.3705386 0.053619407 0.35735014 -0.0901744 0.31481957 -0.062879555 -0.016196493 -0.034453668 -0.31830233 0.1086169 -0.14806896 0.04055828 -0.3059459 0.51169074 -0.0206204 0.13524702 0.052229717 0.28603315 0.4340011 0.013384646 0.2777654 0.045041908 0.03358122 0.065678075 0.5628141 0.33380562 0.07128151 -0.3953682 0.1761198 0.09649024
两个 -0.12661709 0.31711847 0.07699412 0.011904345 0.056586843 -0.4830594 0.21241269 0.5689154 -0.15926546 -0.2552851 -0.11795527 -0.41530344 0.080056906 0.0808808 0.13155608 -0.14731188 0.04760314 -0.40321964 -0.13443518 -0.48098004 0.19632685 0.0751072 0.14922561 -0.19554491 -0.21257873 0.17874467 -0.17084004 -0.26555023 -0.1099816 -0.054431878 0.32513046 0.017903792 0.108832546 -0.05079875 -0.09022382 0.2203243 -0.02099751 -0.25780112 -0.20269549 -0.52201205 -0.08067061 -0.11812529 -0.11300313 -0.1591343 0.21886614 -0.075941265 -0.12670039 0.0066197705 0.022899875 0.22462696 0.19902141 -0.1270108 -0.066277824 -0.060797468 -0.1959951 0.24347717 0.27174753 0.020527573 -0.31363028 0.179753 0.058991067 0.13360704 -0.1225717 -0.10303863 -0.30479357 0.253169 0.12170281 0.19776547 -0.39208186 0.3928147 -0.38269264 0.040229153 0.33964553 -0.08199414 0.29597425 -0.05845482 -0.03426587 -0.03824714 -0.30922633 0.12101615 -0.13694763 0.034253072 -0.29308295 0.5164555 -0.01166422 0.14349149 0.05859027 0.27518904 0.41435376 0.009512059 0.27585042 0.034975078 0.04666365 0.05239204 0.5566449 0.32497597 0.069364294 -0.38740867 0.17814182 0.095417626
钱 -0.13091508 0.3075072 0.07022672 0.010983461 0.057430647 -0.45654663 0.20691742 0.53960174 -0.14747535 -0.25496617 -0.10273546 -0.3778852 0.080888815 0.079654954 0.11666018 -0.15138069 0.05413067 -0.38010636 -0.127488 -0.45855492 0.19279708 0.05810572 0.12824155 -0.18418223 -0.18838422 0.15876915 -0.16767935 -0.26217014 -0.10981997 -0.06310224 0.29172605 0.03219156 0.091266036 -0.055243727 -0.07978721 0.20904028 -0.017899124 -0.24812992 -0.19936845 -0.49008366 -0.07102999 -0.11807146 -0.09448648 -0.15818085 0.2095756 -0.08147414 -0.127532 0.022235915 0.025887126 0.22380236 0.18890521 -0.12365097 -0.061315417 -0.05614323 -0.18065993 0.23297358 0.25677755 0.013945284 -0.30319387 0.16110443 0.05906286 0.12912191 -0.10275445 -0.11155004 -0.2908692 0.24335976 0.12425936 0.18768942 -0.38191977 0.37261721 -0.36520675 0.046087757 0.32719636 -0.08605375 0.2908561 -0.051930785 -0.03239351 -0.030509727 -0.29589072 0.10780099 -0.13413331 0.03655584 -0.29502305 0.48894358 -0.012150806 0.13931029 0.05939825 0.25232726 0.40503928 0.020676378 0.26038292 0.043865662 0.040458724 0.06061446 0.52363384 0.31896585 0.06071139 -0.37388936 0.16906297 0.090284385
地方 -0.11692744 0.28234223 0.06692095 0.006059106 0.04904701 -0.4431666 0.18974876 0.4951345 -0.1495982 -0.22550589 -0.10034745 -0.36122352 0.08087094 0.064021476 0.12403138 -0.14145909 0.039379306 -0.34919357 -0.12279055 -0.42237824 0.17753239 0.061838802 0.1329151 -0.16385303 -0.18580323 0.15212919 -0.15569179 -0.25332585 -0.08759902 -0.053100206 0.28837132 0.027731812 0.08686926 -0.044990003 -0.080106795 0.20263983 -0.021196503 -0.22007044 -0.19146475 -0.46732953 -0.055422798 -0.10800591 -0.101611465 -0.15644732 0.18475434 -0.07466545 -0.1277503 0.014709859 0.020437082 0.19903834 0.17790812 -0.1283361 -0.0574736 -0.06025253 -0.17985165 0.22073661 0.22744739 0.008133392 -0.28434294 0.16042687 0.062232062 0.12512153 -0.10811363 -0.10645539 -0.25895405 0.22758822 0.12116769 0.17318031 -0.3585041 0.3473728 -0.34161073 0.0469021 0.3082585 -0.07188829 0.26079834 -0.04122296 -0.026979262 -0.021213721 -0.27699882 0.09658421 -0.11982442 0.017038824 -0.27844086 0.46230593 -0.028440958 0.12664057 0.053380184 0.23571801 0.3792117 0.012293892 0.24843219 0.04179868 0.033975072 0.05123647 0.49342868 0.28320187 0.070875965 -0.34519047 0.14770092 0.08687584
回家 -0.11131149 0.26595566 0.0704264 0.0057813264 0.057118185 -0.43090475 0.17761807 0.49477974 -0.13235462 -0.22221673 -0.10240435 -0.35608473 0.06940475 0.06959953 0.106548555 -0.13375826 0.035207737 -0.35830072 -0.12672794 -0.41333678 0.17541987 0.06796827 0.12661198 -0.16523038 -0.17763759 0.15777169 -0.1632496 -0.23901592 -0.09462044 -0.04897056 0.2717796 0.0240765 0.09115157 -0.049784265 -0.08340425 0.19546649 -0.026799459 -0.21964209 -0.18942845 -0.44339487 -0.06179144 -0.10728644 -0.09680544 -0.14372495 0.19104856 -0.084625095 -0.11378679 0.0076033166 0.027010242 0.2096641 0.16937175 -0.12139144 -0.059374098 -0.047838107 -0.15714236 0.22313218 0.24149142 0.010013721 -0.27860892 0.15071388 0.042253904 0.11047473 -0.1009425 -0.101840705 -0.26694345 0.21850273 0.11249329 0.16395597 -0.34041584 0.34837422 -0.33696675 0.039477903 0.29854792 -0.072736874 0.2624984 -0.04300956 -0.017695056 -0.033755187 -0.27544713 0.09669958 -0.11686069 0.02483769 -0.26550716 0.45042917 -0.027263664 0.124119096 0.041417047 0.24945746 0.36153072 0.018585058 0.23408623 0.03553492 0.03644228 0.05325856 0.48086312 0.28679383 0.060014535 -0.32782176 0.14285846 0.082191475
回到 -0.11816439 0.2715721 0.061545786 0.00539317 0.050308008 -0.41537684 0.17960325 0.48035833 -0.12756366 -0.21991423 -0.09185715 -0.33670765 0.084938295 0.067062706 0.10781947 -0.13496074 0.0367594 -0.3343914 -0.11255912 -0.40566003 0.16949643 0.04912719 0.113597415 -0.17205913 -0.16578808 0.15030539 -0.15394045 -0.22005418 -0.08829517 -0.062341027 0.25585935 0.01862737 0.07558297 -0.03465958 -0.065184824 0.18412633 -0.02449915 -0.21851605 -0.16847719 -0.43636498 -0.06269888 -0.110729694 -0.09391341 -0.14840591 0.18050998 -0.08055364 -0.102964744 0.005599976 0.010135629 0.19592841 0.15771608 -0.10828307 -0.055164997 -0.053368326 -0.15137084 0.2130968 0.2202927 0.023665942 -0.2692497 0.15389016 0.055382006 0.10026673 -0.09225819 -0.10204512 -0.2522774 0.21782522 0.104527906 0.15873525 -0.32840413 0.33855233 -0.3053558 0.03217952 0.29965127 -0.06681624 0.24516883 -0.049324643 -0.023000186 -0.036986012 -0.2565712 0.10791292 -0.12304544 0.016948432 -0.25708842 0.4191446 -0.015502785 0.120024934 0.047771856 0.22570083 0.36343086 -0.0014274747 0.22175364 0.025894957 0.04679008 0.047908813 0.45225203 0.26386774 0.065735035 -0.32404464 0.13585778 0.08877274
前 -0.14700648 0.34737104 0.08897997 0.007932851 0.054889496 -0.5189185 0.21579863 0.6043866 -0.1696537 -0.26953468 -0.13085786 -0.43830064 0.08941411 0.09658578 0.14684701 -0.16732258 0.04318735 -0.42220953 -0.14748365 -0.50789535 0.20485425 0.0698049 0.14937386 -0.20163184 -0.23034212 0.18332006 -0.19512819 -0.2962592 -0.109114535 -0.0674294 0.33626637 0.020773407 0.096279845 -0.05336071 -0.09121358 0.22218081 -0.024118993 -0.26223812 -0.21778265 -0.55495155 -0.07833593 -0.12510233 -0.123912185 -0.18310218 0.21738024 -0.08848136 -0.15171348 0.020266626 0.028429776 0.25287277 0.20343532 -0.13792306 -0.0606397 -0.07746673 -0.1970055 0.278488 0.28901902 0.015291311 -0.3377854 0.18601641 0.054861285 0.14344236 -0.12668157 -0.118726425 -0.32633024 0.25933996 0.13493687 0.21214016 -0.42311227 0.43119293 -0.39713547 0.03970765 0.36563078 -0.099283904 0.32009342 -0.06812936 -0.01917117 -0.030996675 -0.333659 0.13181345 -0.15484565 0.025145914 -0.32455903 0.5579141 -0.027477257 0.14266628 0.058282256 0.2979555 0.45747453 0.0052005206 0.28041935 0.045859523 0.050214365 0.06705172 0.5880525 0.34798867 0.07185062 -0.40637287 0.1827563 0.115775235
田里 -0.1058703 0.2648851 0.05787302 0.012237975 0.048568014 -0.39929757 0.18063621 0.4596241 -0.12675798 -0.2110404 -0.081229195 -0.3265875 0.07118111 0.07190591 0.10907776 -0.11750008 0.040710248 -0.32134682 -0.114959456 -0.3919179 0.15004416 0.050588712 0.11110325 -0.15486398 -0.16845398 0.14351386 -0.14069864 -0.22843364 -0.07915801 -0.043425284 0.26101878 0.024680857 0.07973149 -0.040271457 -0.0764828 0.16947949 -0.022335026 -0.20347652 -0.16609031 -0.4218262 -0.05197367 -0.10400255 -0.082046084 -0.13738306 0.16715375 -0.068517774 -0.10860179 0.011028899 0.0124618765 0.198881 0.15294072 -0.10532656 -0.052323163 -0.041024335 -0.14994559 0.20552367 0.20996119 0.013848481 -0.26535004 0.14165129 0.05367624 0.09487627 -0.08792993 -0.08394741 -0.23527873 0.19874047 0.10929538 0.14948553 -0.32030404 0.3287601 -0.29786208 0.03208442 0.28072947 -0.08240731 0.24343975 -0.04141774 -0.027544897 -0.021690369 -0.25121358 0.09953522 -0.11148368 0.02730678 -0.24570484 0.4059338 -0.023325633 0.11138764 0.034676947 0.23167707 0.34570324 0.00904011 0.22816795 0.031097531 0.037058767 0.05013006 0.44956088 0.26666382 0.0526865 -0.31543857 0.13001873 0.08859946
村里人 -0.08830579 0.233436 0.0613874 -0.0015229663 0.049530707 -0.35683042 0.15293168 0.4022602 -0.10918336 -0.19418052 -0.07810315 -0.2992821 0.0647613 0.06784355 0.08188814 -0.10113358 0.025221495 -0.28039998 -0.10826102 -0.34892455 0.13302073 0.053149845 0.099110305 -0.13852471 -0.15736325 0.13654335 -0.1258244 -0.20183042 -0.08003014 -0.035758972 0.22931954 0.010543795 0.07486399 -0.04296711 -0.058850907 0.16350798 -0.022573043 -0.17975402 -0.14379482 -0.37621832 -0.048059095 -0.0849131 -0.08807381 -0.12249213 0.15934582 -0.060431104 -0.08610113 0.009734749 0.023594024 0.16086012 0.14844641 -0.106945835 -0.040750433 -0.03749231 -0.13883898 0.18793678 0.17884536 0.012141504 -0.22597715 0.12200938 0.049927793 0.085321605 -0.08268044 -0.06887448 -0.20768605 0.17986386 0.101726905 0.13105763 -0.28696328 0.28609118 -0.2711998 0.03904377 0.25943395 -0.07019891 0.21324895 -0.03174768 -0.024358515 -0.033007853 -0.21948166 0.07642916 -0.10180463 0.023942119 -0.2256142 0.3672952 -0.020079011 0.095240496 0.04287136 0.20007437 0.30027422 0.017491793 0.19500391 0.038538225 0.035725046 0.047796685 0.40259773 0.22985502 0.049142413 -0.2794011 0.12689987 0.066778764
连长 -0.1038491 0.25180283 0.055992607 0.01215825 0.042513456 -0.37483338 0.16339785 0.4252403 -0.11563174 -0.1925371 -0.098048545 -0.3248413 0.07293089 0.06414603 0.096246585 -0.110787116 0.027401173 -0.31309554 -0.099758446 -0.37183687 0.14634956 0.060531933 0.116994284 -0.15428625 -0.16895391 0.13521531 -0.1296096 -0.21549146 -0.07865415 -0.048958734 0.2497247 0.020047998 0.08395705 -0.030865142 -0.07490391 0.17454685 -0.030538926 -0.20383596 -0.15788347 -0.39603877 -0.05056624 -0.10677377 -0.07704974 -0.13789594 0.15635355 -0.06463589 -0.107376136 0.014333193 0.008371627 0.17532496 0.16122173 -0.10780138 -0.04072128 -0.053909544 -0.14882867 0.1991837 0.21200895 0.011811022 -0.2590686 0.13621014 0.052415725 0.10750875 -0.09481155 -0.08055587 -0.22312659 0.18511753 0.09906138 0.15320003 -0.31343505 0.29990757 -0.28446966 0.03241179 0.2662484 -0.068157576 0.24145542 -0.0372876 -0.025980694 -0.028826505 -0.22700909 0.09276182 -0.115867496 0.014710161 -0.24046177 0.40449497 -0.014290132 0.09961302 0.050430078 0.2086245 0.32706913 0.00404974 0.21324834 0.033972085 0.036123 0.04188031 0.42042768 0.25091708 0.048916705 -0.29969555 0.14128502 0.08192831
睡 -0.094853915 0.2472779 0.060622793 0.010198281 0.050668478 -0.36918122 0.15463683 0.4404056 -0.130855 -0.19898942 -0.097437814 -0.3252937 0.065871626 0.07001785 0.09934059 -0.12072607 0.030835306 -0.30275702 -0.09859776 -0.3621444 0.15145616 0.04231771 0.11797547 -0.15197928 -0.15775463 0.13948476 -0.12957221 -0.21241418 -0.0873595 -0.048215635 0.24739395 0.020948937 0.0752066 -0.03014404 -0.06300148 0.1623064 -0.013019054 -0.20126273 -0.16509885 -0.3912364 -0.061156496 -0.08949207 -0.090388805 -0.13665028 0.15335904 -0.06441566 -0.09665368 0.019684548 0.018239373 0.1855973 0.15345073 -0.11337789 -0.036350716 -0.057485078 -0.13899577 0.1921488 0.20207877 0.011327208 -0.23991007 0.13025965 0.047264703 0.10006679 -0.08639517 -0.0907673 -0.2401129 0.1832005 0.09484115 0.15214826 -0.31288683 0.31406325 -0.28576556 0.028660525 0.26414293 -0.07624473 0.22293572 -0.04481391 -0.020294763 -0.017332427 -0.2301686 0.089666426 -0.10150677 0.01685284 -0.24274696 0.39828733 -0.022628445 0.10169947 0.04590277 0.20278667 0.32325462 0.012053891 0.20997518 0.03157215 0.033549175 0.054817483 0.423931 0.24816707 0.04741864 -0.30265158 0.1301291 0.075661056
一会 -0.10343343 0.22424702 0.04960465 0.004383368 0.036814827 -0.34687972 0.15807296 0.40283567 -0.106254935 -0.1774551 -0.07669519 -0.2899546 0.06877138 0.059443146 0.09874937 -0.11726418 0.03525684 -0.2804619 -0.0890525 -0.3451507 0.1495353 0.052152447 0.094930544 -0.12906708 -0.15187024 0.13108242 -0.1382785 -0.19950171 -0.07103257 -0.044969294 0.21822974 0.018848654 0.062330544 -0.031156363 -0.05218161 0.15257843 -0.014266269 -0.18159837 -0.14523776 -0.36577412 -0.060049124 -0.08718599 -0.08382818 -0.10995262 0.14350732 -0.052556913 -0.09453026 0.018523004 0.01944391 0.17718533 0.14324622 -0.096910916 -0.040932283 -0.048851546 -0.13818708 0.18382235 0.19720201 0.020402633 -0.22665681 0.1314512 0.040325947 0.093986996 -0.08505222 -0.08506354 -0.22099489 0.18209793 0.08427413 0.14860791 -0.28968105 0.28046298 -0.2746622 0.040605064 0.25527272 -0.06348703 0.21315968 -0.045556366 -0.02580407 -0.014295594 -0.22601207 0.08921483 -0.09848383 0.031723283 -0.21339922 0.36880046 -0.011136601 0.10230962 0.030613113 0.19002645 0.30152234 0.009047045 0.1971912 0.028308336 0.030344892 0.046450797 0.39302093 0.2411492 0.05812903 -0.27173305 0.12262816 0.06323492
病 -0.08580206 0.21426861 0.05612756 0.00894948 0.04615448 -0.3286185 0.15473402 0.389582 -0.11867497 -0.18359824 -0.08760913 -0.27976495 0.070125125 0.065786526 0.08534818 -0.10671495 0.025801264 -0.26850235 -0.08959504 -0.3297285 0.1458967 0.036833335 0.089700714 -0.12388749 -0.13752894 0.11144642 -0.116154656 -0.1934159 -0.07278117 -0.038424507 0.20831347 0.025719794 0.063737705 -0.041665632 -0.051530354 0.15778802 -0.011858031 -0.16959687 -0.14283496 -0.36402807 -0.050491843 -0.08722275 -0.072400734 -0.106438935 0.15318754 -0.06078538 -0.09803062 0.01815735 0.023153076 0.15607359 0.14156765 -0.087494016 -0.041726336 -0.04059785 -0.13782209 0.16253105 0.17550045 0.004437719 -0.23089391 0.1282089 0.034434024 0.0965278 -0.07747405 -0.07796874 -0.21649893 0.16650662 0.09237183 0.14529312 -0.2774448 0.28118214 -0.26137936 0.042278763 0.23922323 -0.07009436 0.2111174 -0.038352035 -0.008890381 -0.03152476 -0.2073599 0.08386307 -0.09154298 0.018303089 -0.21274637 0.34548575 -0.011066662 0.08695301 0.04630016 0.19736508 0.29700392 0.016508019 0.17993382 0.03905794 0.023168026 0.048817694 0.37253717 0.22425526 0.046278305 -0.2651877 0.12533751 0.07257031
买 -0.10952134 0.24860834 0.062240448 0.0032910972 0.048009314 -0.3750057 0.16756174 0.4294994 -0.11917146 -0.1920923 -0.09054078 -0.32423922 0.06762667 0.067593016 0.091076255 -0.12715992 0.0371853 -0.30618826 -0.109324925 -0.37286204 0.15940164 0.06116864 0.100482315 -0.15773271 -0.15943429 0.13043067 -0.1393094 -0.2173775 -0.09079059 -0.053201213 0.2471937 0.024508543 0.067489535 -0.048997916 -0.0721503 0.16894999 -0.031423457 -0.19245945 -0.15198226 -0.40585235 -0.05900723 -0.08656703 -0.07675646 -0.12807934 0.1571832 -0.075399354 -0.1074592 0.0130487345 0.023364672 0.17775787 0.1631415 -0.113365375 -0.04141261 -0.04438635 -0.15157239 0.20167068 0.19641143 0.017983828 -0.2566597 0.13502264 0.04304054 0.10713406 -0.082782306 -0.092821 -0.23374684 0.1849161 0.09105888 0.15308076 -0.29662654 0.29611015 -0.2779194 0.039678697 0.26157185 -0.07016184 0.23461908 -0.037115995 -0.019349769 -0.01602557 -0.23898262 0.08052575 -0.11918739 0.028223192 -0.23768318 0.38652173 -0.022652676 0.10632392 0.052257683 0.20738916 0.32945764 0.009196702 0.217009 0.03826713 0.025735293 0.036755793 0.41647923 0.2535792 0.058803543 -0.28720236 0.1354461 0.08628659
一点 -0.10508743 0.2622388 0.06923186 0.012772333 0.04630167 -0.41058508 0.1669406 0.4599878 -0.1422537 -0.20456079 -0.10436625 -0.349879 0.077257186 0.07869893 0.11297436 -0.13409318 0.04573923 -0.33200696 -0.11804991 -0.40280688 0.16151659 0.04752779 0.118768305 -0.15479438 -0.17562464 0.1468735 -0.1459794 -0.21957852 -0.09669039 -0.04851723 0.2615882 0.027338218 0.080189764 -0.0505308 -0.07049539 0.17023753 -0.01648378 -0.21787027 -0.17495641 -0.4219817 -0.065862596 -0.113037325 -0.094561614 -0.14548396 0.18282108 -0.08024486 -0.115243636 0.0041200477 0.026612192 0.19095074 0.16052459 -0.11225239 -0.05057178 -0.045169067 -0.160046 0.2019373 0.21389541 0.004902942 -0.2576304 0.15671273 0.050705172 0.10087948 -0.09649386 -0.08571187 -0.2555141 0.21518718 0.1136538 0.16193867 -0.33704743 0.3396064 -0.3104128 0.03495563 0.2935994 -0.08310381 0.24109025 -0.040543064 -0.020672912 -0.025338208 -0.2432459 0.09303218 -0.12400926 0.015529218 -0.24378106 0.42360547 -0.011877441 0.116382554 0.038929973 0.22923316 0.3606403 0.006429006 0.22557597 0.034235977 0.042998046 0.046805084 0.44993338 0.26184487 0.053653765 -0.31536293 0.14108256 0.085798256
事 -0.07897766 0.2228449 0.05883295 0.014060742 0.041439798 -0.33320582 0.14373189 0.38687688 -0.11752019 -0.17300089 -0.08188308 -0.27013636 0.06676375 0.051690802 0.08925549 -0.10995695 0.023061823 -0.27197486 -0.09314803 -0.331751 0.13591637 0.045842998 0.0875008 -0.13426106 -0.14315768 0.12357191 -0.117249034 -0.17996646 -0.07075752 -0.05056883 0.21525607 0.029266646 0.07785138 -0.028413177 -0.05383882 0.15253554 -0.024058938 -0.17626716 -0.14251718 -0.35574514 -0.042463217 -0.077299476 -0.07515648 -0.12179979 0.13978998 -0.06642062 -0.09873895 0.012750299 0.016766649 0.15383412 0.12747917 -0.093106925 -0.040751174 -0.043185733 -0.12099548 0.16813986 0.16944039 0.018375868 -0.21106568 0.11547269 0.048090197 0.093893 -0.078937165 -0.076238245 -0.19726782 0.17830272 0.09544415 0.12625095 -0.26883036 0.26328292 -0.2641938 0.027897503 0.23471141 -0.066993885 0.20757473 -0.04258192 -0.016734796 -0.024660299 -0.20461473 0.08546934 -0.08776454 0.02441717 -0.20989183 0.35482705 -0.010333405 0.093740895 0.048770685 0.18262158 0.29199252 0.0007268835 0.18806177 0.039161682 0.021400655 0.043049216 0.37761045 0.21490113 0.039853197 -0.2654045 0.11958475 0.07157259
